81 300
<OOV> 0.019646918401122 0.02129553258419 -0.021386066451669 -0.0071529075503349 -0.0273148547858 0.019088484346867 0.0051314765587449 0.021915031597018 0.021946897730231 -0.00088810676243156 -0.0076893540099263 0.02800277620554 0.048076421022415 -0.0089075630530715 0.018482973799109 0.0079694297164679 -0.0019068092806265 -0.036004923284054 -0.010788247920573 -0.0098982444033027 -0.015682198107243 0.012731700204313 0.02290497161448 -0.017584910616279 -0.0061427750624716 -0.025524072349072 -0.044032208621502 0.01947551779449 -0.010195574723184 0.0093902396038175 0.023799540475011 0.013179201632738 -0.031750828027725 -0.0059742820449173 -0.032454825937748 -0.04162735119462 0.0031551369465888 0.021233018487692 0.0031827588099986 -0.0072136512026191 0.013440095819533 -0.020221950486302 0.034943178296089 -0.00079152267426252 0.022445531561971 0.024029638618231 0.011102351360023 -0.014227108098567 0.022244337946177 -0.0082790050655603 -0.017704108729959 0.015472130849957 -0.013821134343743 -0.012619856745005 -0.027173675596714 -0.026548713445663 -0.020628595724702 0.048799529671669 0.013097612187266 0.026599595323205 -0.040789507329464 0.027700442820787 -0.0066298828460276 -0.047201804816723 -0.0069137238897383 -0.032609347254038 -0.00063149014022201 -0.034591775387526 -0.0074169705621898 -0.042291350662708 -0.018773877993226 0.038986571133137 -0.0073648695833981 0.025037869811058 0.039338916540146 0.019340323284268 0.044416002929211 0.0011763375950977 0.00018366737640463 -0.0035731946118176 0.012395295314491 0.0068430695682764 -0.038438159972429 -0.0197450555861 -0.018271451815963 -0.00026912096654996 -0.0085173789411783 0.018326289951801 0.036630913615227 0.041669867932796 -0.024954464286566 -0.039107106626034 -0.001696573686786 -0.00045082136057317 0.048555977642536 -0.026716407388449 0.0019485121592879 -0.0063139339908957 0.011289452202618 0.025154300034046 -0.037937134504318 -0.0019107875414193 0.032634079456329 0.029772840440273 0.010306012816727 -0.02172970585525 0.004506800789386 -0.0066581759601831 -0.015723615884781 -0.049024265259504 -0.019587920978665 -0.015920400619507 -0.0082977786660194 0.01892719976604 0.018130075186491 0.036936927586794 0.037545684725046 -0.023219617083669 0.0010422340128571 -0.0043252087198198 0.016931379213929 -0.023171870037913 0.0085936542600393 0.033705279231071 0.012490349821746 -0.022948533296585 0.017468905076385 0.0030062012374401 0.034234244376421 -0.032462734729052 -0.041680499911308 -0.018503354862332 0.026368282735348 0.039110910147429 -0.025633361190557 -0.031966373324394 -0.030577704310417 -0.00056837970623747 0.0072456961497664 -0.028770189732313 -0.040428746491671 0.0020876869093627 0.038532681763172 -0.033990006893873 0.012724896892905 0.041905678808689 0.022341635078192 0.0494289919734 -0.048387080430984 -0.0022952442523092 0.0094431880861521 -0.019011650234461 0.005678519140929 0.00072043196996674 -0.034104034304619 -0.021920679137111 -0.034692950546741 0.026383670046926 0.019552953541279 -0.039145771414042 -0.018123356625438 0.001165471621789 0.019197028130293 0.04097693786025 0.0054383254610002 -0.028162399306893 -0.011104942299426 -0.013689594343305 0.042513247579336 0.035497281700373 0.034166999161243 0.021139180287719 -0.014260242693126 -0.01070555858314 -0.045640852302313 -0.026869852095842 -0.019523192197084 -0.011982528492808 -0.010181431658566 0.004916210193187 0.020495882257819 0.0056719058193266 0.049535848200321 -0.049586534500122 -0.014408513903618 0.013802251778543 0.026254782453179 -0.044235199689865 0.0093176923692226 -0.045697309076786 0.019170179963112 0.037505112588406 -0.034887254238129 -0.020741239190102 -0.010112371295691 0.026276767253876 -0.025914410129189 -0.013213473372161 -0.01565439812839 0.037350226193666 0.0013128157006577 -0.047057628631592 0.016662454232574 0.0052043725736439 -0.039409153163433 -0.025975249707699 -0.036910504102707 0.038480501621962 -0.017801940441132 -0.0039761574007571 0.016156433150172 -0.030682967975736 0.03465062379837 -0.020630748942494 0.0053257341496646 0.031792752444744 0.035445250570774 0.0059487372636795 -0.011516219004989 0.017792545258999 -0.018321210518479 0.030912667512894 -0.014573532156646 0.036857213824987 -0.032891817390919 -0.0082007544115186 0.032911263406277 -0.044106185436249 -0.016132915392518 -0.0021540997549891 0.0052370075136423 0.0021159430034459 0.0078551471233368 0.0080632017925382 0.0021533058024943 -0.01908010058105 -0.049731194972992 0.041988261044025 0.048834539949894 0.015534750185907 0.040534157305956 -0.015075861476362 -0.029236413538456 0.004109404515475 -0.020751059055328 -0.0050946599803865 0.0020010154694319 -0.021767904981971 0.040191136300564 -0.020412348210812 0.048363089561462 0.0063480986282229 -0.024245794862509 0.021519128233194 0.0064359046518803 0.0017618677811697 0.030696868896484 -0.014795817434788 -0.010562994517386 0.013277885504067 0.02310730330646 0.037311904132366 -0.033893097192049 -0.033211156725883 0.010069856420159 0.048747833818197 0.036586444824934 -0.015058507211506 0.048352159559727 0.032620511949062 -0.042063422501087 -0.043453846126795 -0.0071652722544968 -0.049464669078588 -0.029545713216066 0.038694463670254 -0.0049363514408469 0.041131813079119 0.0047763576731086 -0.030059222131968 -0.040667328983545 -0.047244861721992 -0.020313922315836 0.031733490526676 0.042758423835039 -0.025817237794399 0.0069003733806312 -0.044391699135303 -0.0042588002979755 -0.043243918567896 0.025352599099278 -0.0026128143072128 0.02418621443212 0.00094292644644156 -0.045142095535994 -0.0083204861730337 0.020869739353657 -0.024415707215667 0.033924333751202 -0.011848789639771
, -0.082751996815205 0.67203998565674 -0.14986999332905 -0.064983002841473 0.056490998715162 0.40228000283241 0.0027747000567615 -0.33109998703003 -0.30691000819206 2.0817000865936 0.031819000840187 0.013643000274897 0.30265000462532 0.0071296999230981 -0.5819000005722 -0.27739998698235 -0.062254000455141 1.1450999975204 -0.24232000112534 0.12349999696016 -0.1224299967289 0.33151999115944 -0.0061619998887181 -0.30540999770164 -0.13056999444962 -0.05460099875927 0.037082999944687 -0.070551998913288 0.58929997682571 -0.30384999513626 0.28979998826981 -0.14653000235558 -0.27052000164986 0.3716099858284 0.32030999660492 -0.29124999046326 0.0052482997998595 -0.13211999833584 -0.05273599922657 0.087348997592926 -0.26668000221252 -0.1689700037241 0.015162000432611 -0.0083745997399092 -0.14870999753475 0.23412999510765 -0.20719000697136 -0.091385997831821 0.40075001120567 -0.17223000526428 0.18144999444485 0.37586000561714 -0.28681999444962 0.37288999557495 -0.16185000538826 0.18007999658585 0.30320000648499 -0.13215999305248 0.18352000415325 0.095758996903896 0.094916000962257 0.0082890000194311 0.11761000007391 0.34046000242233 0.03677000105381 -0.29076999425888 0.058302998542786 -0.027814000844955 0.082941003143787 0.18619999289513 -0.031493999063969 0.27985000610352 -0.074412003159523 -0.13762000203133 -0.21865999698639 0.18138000369072 0.040855001658201 -0.11299999803305 0.24107000231743 0.36570000648499 -0.27524998784065 -0.056839998811483 0.34872001409531 0.011884000152349 0.14517000317574 -0.71394997835159 0.48497000336647 0.14806999266148 0.62287002801895 0.20599000155926 0.58379000425339 -0.13437999784946 0.40206998586655 0.183109998703 0.28020998835564 -0.42348998785019 -0.25626000761986 0.17714999616146 -0.5409500002861 0.16595999896526 -0.036058001220226 0.084990002214909 -0.64989000558853 0.075548999011517 -0.28830999135971 0.40626001358032 -0.28020000457764 0.094062000513077 0.32405999302864 0.28437000513077 -0.26341000199318 0.11552999913692 0.071918003261089 -0.4721499979496 -0.18366000056267 -0.34709000587463 0.29963999986649 -0.6651399731636 0.0025160000659525 -0.42333000898361 0.2751199901104 0.36011999845505 0.16311000287533 0.2396399974823 -0.059229999780655 0.3260999917984 0.20558999478817 0.038676999509335 -0.045816000550985 0.089763998985291 0.43151000142097 -0.15953999757767 0.085320003330708 -0.26572000980377 -0.15001000463963 0.084285996854305 -0.16714000701904 -0.4300400018692 0.060807000845671 0.13120999932289 -0.24111999571323 0.66553997993469 0.44530001282692 -0.18018999695778 -0.13919000327587 0.56252002716064 0.21457000076771 -0.46443000435829 -0.01221099961549 0.029988000169396 -0.051093999296427 -0.20135000348091 0.80787998437881 0.47376999258995 -0.057647000998259 0.46215999126434 0.16084000468254 -0.20953999459743 -0.05451999977231 0.15571999549866 -0.13711999356747 0.1297200024128 -0.011935999616981 -0.0033780001103878 -0.13594999909401 -0.080710999667645 0.20065000653267 0.054055999964476 0.046815998852253 0.059539001435041 0.046264998614788 0.17754000425339 -0.31093999743462 0.28119000792503 -0.24355000257492 0.085252001881599 -0.21010999381542 -0.19472000002861 0.0027296999469399 -0.46340999007225 0.14789000153542 -0.31516999006271 -0.065939001739025 0.036106001585722 0.42903000116348 -0.33759000897408 0.16432000696659 0.32567998766899 -0.050391998142004 -0.054297000169754 0.24074000120163 0.41923001408577 0.13011999428272 -0.17167000472546 -0.37808001041412 -0.23089000582695 -0.019477000460029 -0.29291000962257 -0.30823999643326 0.3029699921608 -0.2265899926424 0.081574000418186 -0.18515999615192 -0.21408000588417 0.40615999698639 -0.28973999619484 0.074174001812935 -0.17794999480247 0.28595000505447 -0.039625998586416 -0.23389999568462 -0.36054000258446 -0.067502997815609 -0.091064997017384 0.23438000679016 -0.004133100155741 0.0032319999299943 0.0072134002111852 0.0086970003321767 0.21614000201225 0.049904000014067 0.35582000017166 0.13748000562191 0.073361001908779 0.1416600048542 0.24120000004768 -0.013322000391781 0.15613000094891 0.083380997180939 0.08814600110054 -0.019356999546289 0.43794998526573 0.083961002528667 0.45309001207352 -0.50489002466202 -0.10864999890327 -0.25270000100136 -0.18251000344753 0.20441000163555 0.13319000601768 0.12939999997616 0.050593998283148 -0.15612000226974 -0.39542999863625 0.1253799945116 0.24880999326706 -0.19269999861717 -0.3184700012207 -0.12718999385834 0.4341000020504 0.31176999211311 -0.0040946002118289 -0.20939999818802 -0.079961001873016 0.11609999835491 -0.050794001668692 0.015266000293195 -0.28029999136925 -0.12486000359058 0.23587000370026 0.23389999568462 -0.14023000001907 0.028462000191212 0.56923002004623 -0.16490000486374 -0.03642899915576 0.010050999931991 -0.17106999456882 -0.042608000338078 0.044964998960495 -0.43930000066757 -0.26137000322342 0.30088001489639 -0.060772001743317 -0.45311999320984 -0.19076000154018 -0.20287999510765 0.27693998813629 -0.06088799983263 0.11943999677896 0.62206000089645 -0.19343000650406 0.47848999500275 -0.30112999677658 0.059388998895884 0.07490099966526 0.061067998409271 -0.46619999408722 0.40053999423981 -0.19099000096321 -0.14330999553204 0.018267000094056 -0.18643000721931 0.20709000527859 -0.35598000884056 0.053380001336336 -0.050820998847485 -0.19179999828339 -0.37845999002457 -0.065889999270439
. 0.012001000344753 0.20750999450684 -0.12578000128269 -0.59324997663498 0.12524999678135 0.15974999964237 0.13748000562191 -0.33156999945641 -0.13694000244141 1.7892999649048 -0.47093999385834 0.7043399810791 0.26673001050949 -0.089960999786854 -0.18167999386787 0.067226000130177 0.053346998989582 1.5594999790192 -0.25409999489784 0.038412999361753 -0.014089999720454 0.056774001568556 0.023434000089765 0.024041999131441 0.31703001260757 0.19024999439716 -0.37505000829697 0.035603001713753 0.11810000240803 0.012032000347972 -0.037565998733044 -0.50459998846054 -0.049261000007391 0.092350997030735 0.11031000316143 -0.073062002658844 0.33994001150131 0.28238999843597 0.13413000106812 0.070128001272678 -0.022098999470472 -0.28102999925613 0.49606999754906 -0.48693001270294 -0.090963996946812 -0.15379999577999 -0.38010999560356 -0.014228000305593 -0.1939200013876 -0.11067999899387 -0.014088000170887 -0.17905999720097 0.24508999288082 -0.16877999901772 -0.153510004282 -0.13808000087738 0.021509999409318 0.13698999583721 0.0068060997873545 -0.14914999902248 -0.38168999552727 0.12726999819279 0.4400700032711 0.32677999138832 -0.46116998791695 0.068686999380589 0.34746998548508 0.18827000260353 -0.31837001442909 0.44470000267029 -0.20949999988079 -0.26987001299858 0.48945000767708 0.15388000011444 0.052949998527765 -0.049830999225378 0.11207000166178 0.14880999922752 -0.37002998590469 0.3077700138092 -0.33864998817444 0.045148998498917 -0.18986999988556 0.2663399875164 -0.26401001214981 -0.47556000947952 0.68380999565125 -0.3065299987793 0.2460599988699 0.31610998511314 -0.071097999811172 0.030417000874877 0.088119000196457 0.045024998486042 0.20125000178814 -0.2161799967289 -0.36370998620987 -0.25947999954224 -0.42397999763489 -0.14305000007153 -0.1020800024271 0.21498000621796 -0.21923999488354 -0.17935000360012 0.21546000242233 0.13800999522209 0.24503999948502 -0.25589999556541 0.054815001785755 0.21307000517845 0.25639998912811 -0.25672999024391 0.17960999906063 -0.4763799905777 -0.25181001424789 -0.009149800054729 -0.054361999034882 -0.21006999909878 0.12597000598907 -0.40795001387596 -0.021164000034332 0.20585000514984 0.18925000727177 -0.0051895999349654 -0.5139399766922 0.28861999511719 -0.077748000621796 -0.27676001191139 0.46566998958588 -0.14225000143051 -0.17879000306129 -0.43569999933243 -0.32480999827385 0.15034000575542 -0.058366999030113 0.49652001261711 0.20472000539303 0.019866000860929 0.13325999677181 0.1282300055027 -1.0176999568939 0.29006999731064 0.28995001316071 0.029993999749422 -0.10762999951839 0.28665000200272 -0.24387000501156 0.22904999554157 -0.26249000430107 -0.069269001483917 -0.17889000475407 0.21935999393463 0.15146000683308 0.045669998973608 -0.050496999174356 0.071482002735138 -0.10270000249147 -0.080705001950264 0.3029600083828 0.031302001327276 0.26613000035286 -0.0060951001942158 0.10312999784946 -0.39987000823021 -0.043944999575615 -0.057624999433756 0.087020002305508 -0.098151996731758 0.22834999859333 -0.0052109998650849 0.038075000047684 0.015909999608994 -0.20622000098228 0.021852999925613 0.0040425998158753 -0.043062999844551 -0.0022940000053495 -0.26096999645233 -0.25802001357079 -0.2815800011158 -0.23117999732494 -0.01040400005877 -0.30101999640465 -0.40419998764992 0.014653000049293 -0.10445000231266 0.30377000570297 -0.20957000553608 0.31189998984337 0.06827200204134 0.10080000013113 0.010422999970615 0.54010999202728 0.29864999651909 0.1265300065279 0.013760999776423 0.217380002141 -0.39520999789238 0.066633000969887 0.50326997041702 0.14913000166416 -0.11553999781609 0.01004199963063 0.095697999000549 0.1660699993372 -0.18807999789715 0.055018998682499 0.026714999228716 -0.3163999915123 -0.046583000570536 -0.051591001451015 0.023475000634789 -0.11006999760866 0.085642002522945 0.28393998742104 0.040497001260519 0.071985997259617 0.14157000184059 -0.021198999136686 0.44718000292778 0.2008800059557 -0.12963999807835 -0.067183002829552 0.47613999247551 0.13393999636173 -0.1728699952364 -0.37323999404907 -0.17284999787807 0.026830000802875 -0.13160000741482 0.091159999370575 -0.46487000584602 0.12739999592304 -0.090158998966217 -0.10552000254393 0.068006001412868 -0.13380999863148 0.17056000232697 0.089509002864361 -0.23133000731468 -0.27572000026703 0.061533998697996 -0.051646001636982 0.28376999497414 0.25286000967026 -0.24139000475407 -0.19904999434948 0.12048999965191 -0.10109999775887 0.27391999959946 0.27843001484871 0.26449000835419 -0.18291999399662 -0.048960998654366 0.19198000431061 0.17192000150681 0.33658999204636 -0.20183999836445 -0.34305000305176 -0.24552999436855 -0.15399000048637 0.39449998736382 0.22838999330997 -0.25753000378609 -0.25674998760223 -0.37332001328468 -0.23883999884129 -0.048815999180079 0.78323000669479 0.18851000070572 -0.26477000117302 0.096565999090672 0.062657997012138 -0.30667999386787 -0.43334001302719 0.10006000101566 0.21135999262333 0.039459001272917 -0.11077000200748 0.24421000480652 0.60942000150681 -0.46645998954773 0.086384996771812 -0.39702001214027 -0.23363000154495 0.021307000890374 -0.10778000205755 -0.22810000181198 0.50802999734879 0.11567000299692 0.16165000200272 -0.066737003624439 -0.29556000232697 0.022611999884248 -0.28134998679161 0.063500002026558 0.14019000530243 0.1387100070715 -0.36048999428749 -0.035000000149012
the 0.2720400094986 -0.062029998749495 -0.18840000033379 0.02322500012815 -0.018157999962568 0.0067191999405622 -0.13876999914646 0.17708000540733 0.17709000408649 2.5882000923157 -0.35179001092911 -0.17312000691891 0.43285000324249 -0.10707999765873 0.15005999803543 -0.19981999695301 -0.19092999398708 1.1871000528336 -0.16207000613213 -0.23537999391556 0.0036639999598265 -0.1915600001812 -0.085661999881268 0.039198998361826 -0.066449001431465 -0.042089998722076 -0.19122000038624 0.011679000221193 -0.37138000130653 0.21886000037193 0.0011422999668866 0.43189999461174 -0.14204999804497 0.38058999180794 0.30654001235962 0.020167000591755 -0.18316000699997 -0.0065186000429094 -0.008054899983108 -0.12063000351191 0.027506999671459 0.29839000105858 -0.22896000742912 -0.22881999611855 0.14670999348164 -0.076301001012325 -0.12680000066757 -0.0066650998778641 -0.052795000374317 0.14258000254631 0.15610000491142 0.055509999394417 -0.16148999333382 0.096289999783039 -0.076532997190952 -0.049970999360085 -0.010195000097156 -0.04764100164175 -0.16678999364376 -0.23939999938011 0.005014100112021 -0.049175001680851 0.013337999582291 0.41923001408577 -0.10103999823332 0.015111000277102 -0.077706001698971 -0.13470999896526 0.11900000274181 0.10802000015974 0.21061000227928 -0.051904000341892 0.18526999652386 0.17856000363827 0.041292998939753 -0.014384999871254 -0.082566998898983 -0.035482998937368 -0.07617300003767 -0.045366998761892 0.089281000196934 0.33671998977661 -0.2209900021553 -0.0067274998873472 0.23983000218868 -0.2314700037241 -0.88591998815536 0.091297000646591 -0.012122999876738 0.013233000412583 -0.25799000263214 -0.02972000092268 0.016753999516368 0.013690000399947 0.32376998662949 0.039546001702547 0.042114000767469 -0.088243000209332 0.30318000912666 0.087747000157833 0.16346000134945 -0.40485000610352 -0.043845001608133 -0.040697000920773 0.20936000347137 -0.77794998884201 0.29969999194145 0.23340000212193 0.1489100009203 -0.39037001132965 -0.053086001425982 0.06292200088501 0.065663002431393 -0.13906000554562 0.094192996621132 0.10344000160694 -0.27970001101494 0.28905001282692 -0.32161000370979 0.020687000826001 0.063253998756409 -0.23257000744343 -0.43520000576973 -0.017048999667168 -0.32743999361992 -0.047063998878002 -0.07514899969101 -0.1878799945116 -0.015017000027001 0.029341999441385 -0.35269999504089 -0.044277999550104 -0.13506999611855 -0.11643999814987 -0.1042999997735 0.13920000195503 0.0039198999293149 0.37602999806404 0.067216999828815 -0.37992000579834 -1.1240999698639 -0.057356998324394 -0.16825999319553 0.039409998804331 0.26039999723434 -0.023865999653935 0.17962999641895 0.1355299949646 0.21389999985695 0.052632998675108 -0.2503300011158 -0.11307000368834 0.22234000265598 0.066596999764442 -0.11161000281572 0.062437999993563 -0.27972000837326 0.19878000020981 -0.36261999607086 -1.0005999683926e-05 -0.17261999845505 0.29166001081467 -0.15723000466824 0.054294999688864 0.061009999364614 -0.39164999127388 0.27660000324249 0.057815998792648 0.39708998799324 0.025228999555111 0.24672000110149 -0.089050002396107 0.15682999789715 -0.20960000157356 -0.22195999324322 0.05239399895072 -0.011359999887645 0.050416998565197 -0.14023000001907 -0.042824998497963 -0.03193100169301 -0.21335999667645 -0.20401999354362 -0.23272000253201 0.074490003287792 0.088201999664307 -0.11062999814749 -0.33526000380516 -0.014027999714017 -0.29429000616074 -0.086911000311375 -0.13210000097752 -0.43615999817848 0.20512999594212 0.0079362001270056 0.48504999279976 0.064236998558044 0.14260999858379 -0.43711000680923 0.12782999873161 -0.13110999763012 0.24672999978065 -0.27496001124382 0.15895999968052 0.43314000964165 0.090286001563072 0.24661999940872 0.066463001072407 -0.20099000632763 0.11010000109673 0.036439999938011 0.17359000444412 -0.15689000487328 -0.086327999830246 -0.17316000163555 0.36974999308586 -0.40316998958588 -0.064814001321793 -0.034166000783443 -0.013772999867797 0.062853999435902 -0.17182999849319 -0.12365999817848 -0.034662999212742 -0.22792999446392 -0.23172000050545 0.23899999260902 0.27472999691963 0.15331999957561 0.10661000013351 -0.060982000082731 -0.024805000051856 -0.13478000462055 0.17931999266148 -0.37373998761177 -0.028929999098182 -0.11141999810934 -0.083889998495579 -0.055932000279427 0.068039000034332 -0.10783000290394 0.14650000631809 0.094617001712322 -0.084554001688957 0.06742899864912 -0.32910001277924 0.034081999212503 -0.16746999323368 -0.25997000932693 -0.22916999459267 0.020159000530839 -0.027580000460148 0.16135999560356 -0.18537999689579 0.037664998322725 0.57603001594543 0.20683999359608 0.27941000461578 0.16477000713348 -0.01876899972558 0.12061999738216 0.069647997617722 0.05902199819684 -0.23153999447823 0.24095000326633 -0.34709998965263 0.048539999872446 -0.056501999497414 0.41565999388695 -0.43193998932838 0.48230001330376 -0.051759000867605 -0.27285000681877 -0.25892999768257 0.16554999351501 -0.18310000002384 -0.06734000146389 0.4245699942112 0.010346000082791 0.14237000048161 0.25938999652863 0.17123000323772 -0.13820999860764 -0.066845998167992 0.015980999916792 -0.30193001031876 0.043579000979662 -0.043101999908686 0.35025000572205 -0.19681000709534 -0.42809998989105 0.16899000108242 0.22510999441147 -0.28556999564171 -0.10279999673367 -0.018168000504375 0.11406999826431 0.13015000522137 -0.18317000567913 0.13230000436306
and -0.18567000329494 0.066008001565933 -0.25209000706673 -0.11725000292063 0.26513001322746 0.064907997846603 0.12291000038385 -0.093979001045227 0.024320999160409 2.4925999641418 -0.017915999516845 -0.071217998862267 -0.24782000482082 -0.26236999034882 -0.22460000216961 -0.21961000561714 -0.1292700022459 1.086699962616 -0.66071999073029 -0.031617000699043 -0.057328000664711 0.056903000921011 -0.27939000725746 -0.39825001358986 0.14250999689102 -0.085146002471447 -0.14778999984264 0.055066999047995 -0.0028687000740319 -0.20916999876499 -0.07073500007391 0.22576999664307 -0.15881000459194 -0.10395000129938 0.097110003232956 -0.56251001358032 -0.32929000258446 -0.20852999389172 0.0098711000755429 0.049777001142502 0.0014883000403643 0.15884000062943 0.042771000415087 -0.0026956000365317 -0.024620000272989 -0.19212999939919 -0.22555999457836 0.10837999731302 0.090085998177528 -0.13290999829769 0.3255900144577 -0.17037999629974 -0.10989999771118 -0.23985999822617 -0.02428900077939 0.014655999839306 -0.23700000345707 0.084827996790409 -0.35982000827789 -0.076746001839638 0.04890900105238 0.1143099963665 -0.21013000607491 0.24764999747276 -0.017531000077724 -0.14027999341488 0.046190999448299 0.22971999645233 0.11749999970198 0.1272400021553 0.012992000207305 0.45870000123978 0.41084998846054 0.039106000214815 0.15713000297546 -0.18376000225544 0.26833999156952 0.056662000715733 0.16843999922276 -0.053787998855114 -0.091891996562481 0.11192999780178 -0.086810000240803 -0.13323999941349 0.15061999857426 -0.31733000278473 -0.2207800000906 0.25038000941277 0.34130999445915 0.36419001221657 -0.089514002203941 -0.22192999720573 0.24470999836922 0.040091000497341 0.47797998785973 -0.029996000230312 0.0019211999606341 0.063510999083519 -0.20417000353336 -0.26478001475334 0.20648999512196 0.015572999604046 -0.27722001075745 -0.18861000239849 -0.10288999974728 -0.49772998690605 0.14985999464989 -0.010877000167966 0.25084999203682 -0.28117001056671 0.18965999782085 -0.065879002213478 0.094752997159958 -0.15338000655174 -0.055071000009775 -0.36746999621391 0.24992999434471 0.096527002751827 0.23537999391556 0.18404999375343 0.052859000861645 0.22967000305653 0.12581999599934 0.15535999834538 -0.1727499961853 0.33945998549461 -0.10048999637365 0.074947997927666 -0.093575000762939 -0.040490001440048 -0.016922000795603 -0.0058038998395205 -0.1810799986124 0.19537000358105 0.45177999138832 0.10965000092983 0.23370000720024 -0.099050000309944 -0.07863300293684 0.21678000688553 -0.71231001615524 -0.099758997559547 0.33333000540733 -0.16459999978542 -0.091687999665737 0.21055999398232 0.023669000715017 0.028922000899911 0.1199000030756 -0.12511999905109 -0.026037000119686 -0.062217000871897 0.55816000699997 0.0050273002125323 -0.30888000130653 0.038610998541117 0.17567999660969 -0.11163000017405 -0.10814999789 -0.19444000720978 0.29433000087738 0.14519000053406 -0.042877998203039 0.18534000217915 0.018890999257565 -0.61883002519608 0.13352000713348 0.03600699827075 0.33994999527931 0.22109000384808 -0.079328000545502 0.071318998932838 0.17678000032902 0.16378000378609 -0.23141999542713 -0.14339999854565 -0.098122000694275 -0.019285999238491 0.23559999465942 -0.34013000130653 -0.061007000505924 -0.23207999765873 -0.31152001023293 0.10063000023365 -0.15956999361515 0.20182999968529 -0.0163449998945 -0.12302999943495 0.022667000070214 -0.20985999703407 -0.20126999914646 -0.087883003056049 0.064731001853943 0.10194999724627 -0.17859999835491 0.33055999875069 0.21407000720501 -0.32164999842644 -0.17105999588966 0.19406999647617 -0.3861800134182 -0.21480000019073 -0.052253998816013 0.023174999281764 0.47389000654221 0.18612000346184 0.12711000442505 0.2085500061512 -0.10255999863148 -0.12015999853611 -0.40487998723984 0.029695000499487 -0.027419000864029 -0.0085226995870471 -0.11415000259876 0.081133998930454 -0.17227999866009 0.19142000377178 0.026513999328017 0.043788999319077 -0.12398999929428 0.13354000449181 0.10112000256777 0.081681996583939 -0.15084999799728 0.0075806002132595 -0.18971000611782 0.24669000506401 0.22491000592709 0.35552999377251 -0.32769998908043 -0.2182099968195 0.14020000398159 0.28604000806808 0.055225998163223 -0.086543999612331 0.021110000088811 -0.19235999882221 0.074244998395443 0.076782003045082 0.00081666000187397 0.034097000956535 -0.57718998193741 0.10656999796629 0.28134000301361 -0.11964000016451 -0.68281000852585 -0.32892999053001 -0.24442000687122 -0.025846999138594 0.0091273002326488 0.20250000059605 -0.050958998501301 -0.11042000353336 0.010962000116706 0.076773002743721 0.40048000216484 -0.40738999843597 -0.44773000478745 0.31953999400139 -0.036325998604298 -0.012788999825716 -0.17282000184059 0.14759999513626 0.23559999465942 0.080641999840736 -0.36528000235558 -0.0083443000912666 0.62389999628067 -0.24379000067711 0.019917000085115 -0.28802999854088 -0.010494000278413 0.038412000983953 -0.11717999726534 -0.072461999952793 0.16380999982357 0.38488000631332 -0.029782999306917 0.23443999886513 0.45320001244545 0.14814999699593 -0.027021000161767 -0.073181003332138 -0.11469999700785 -0.0054545002058148 0.4779599905014 0.090911999344826 0.094489000737667 -0.36882001161575 -0.59395998716354 -0.097728997468948 0.2007199972868 0.1705500036478 -0.0047356002032757 -0.039709001779556 0.32497999072075 -0.023452000692487 0.12302000075579 0.33120000362396
to 0.31924000382423 0.063160002231598 -0.27858000993729 0.26120001077652 0.079248003661633 -0.21461999416351 -0.10495000332594 0.15494999289513 -0.033530000597239 2.4834001064301 -0.5090399980545 0.087489999830723 0.21425999701023 0.22150999307632 -0.25233998894691 -0.097543999552727 -0.19269999861717 1.3605999946594 -0.11591999977827 -0.10383000224829 0.2192900031805 0.11997000128031 -0.11062999814749 0.14212000370026 -0.16642999649048 0.21815000474453 0.0042086001485586 -0.070012003183365 -0.23532000184059 -0.26517999172211 0.03124799951911 0.16669000685215 -0.089777000248432 0.20058999955654 0.31613999605179 -0.55830001831055 0.075735002756119 0.27634999155998 0.1274099946022 -0.18185000121593 -0.12722000479698 0.024685999378562 -0.077233001589775 -0.48998001217842 0.020354999229312 0.0039164000190794 0.12150000035763 0.089722998440266 -0.0789749994874 0.08144299685955 -0.099086999893188 -0.05562099814415 0.1073699966073 -0.0044041997753084 0.48495998978615 0.11716999858618 -0.017328999936581 0.1089999973774 -0.35558000206947 0.051084000617266 0.15714000165462 0.17960999906063 -0.29710999131203 0.033645000308752 -0.025792000815272 -0.013930999673903 -0.23000000417233 -0.040305998176336 0.22281999886036 -0.013543999753892 0.011553999967873 0.39109998941422 0.26532998681068 -0.31011998653412 0.40538999438286 -0.042975001037121 0.020811000838876 -0.33033001422882 0.19573000073433 -0.03795799985528 0.10273999720812 -0.0013580999802798 -0.44505000114441 0.077886000275612 0.085110001266003 -0.20284999907017 -0.19481000304222 0.056933000683784 0.53105002641678 0.034154001623392 -0.5699599981308 -0.18468999862671 0.093402996659279 0.28044000267982 -0.23349000513554 0.10937999933958 -0.01428799983114 -0.27399998903275 0.034196000546217 -0.098479002714157 0.13267999887466 0.19437000155449 0.13462999463081 -0.099059000611305 0.040323998779058 -0.66272002458572 0.35710000991821 0.15429000556469 0.18598000705242 0.087541997432709 0.080537997186184 -0.25121000409126 0.2415499985218 0.1782999932766 0.036010999232531 -0.027676999568939 0.21161000430584 -0.29107001423836 -0.0083456002175808 0.11316999793053 0.31064000725746 -0.10693000257015 -0.27366998791695 -0.039785001426935 0.039880998432636 0.034462001174688 -0.16517999768257 0.16114999353886 0.060825999826193 0.30750000476837 -0.22397999465466 0.14619000256062 -0.26609998941422 0.49731999635696 -0.1399600058794 -0.242870002985 0.039468999952078 -0.08449500054121 -0.24314999580383 0.070701003074646 -1.0135999917984 -0.21732999384403 -0.36877998709679 -0.24973000586033 0.17472000420094 -0.011591999791563 0.068561002612114 -0.090410999953747 0.21877999603748 -0.26390001177788 0.11903999745846 0.14284999668598 -0.18706999719143 -0.13473999500275 -0.13232000172138 -0.26552999019623 0.22946999967098 -0.018215000629425 0.0067382999695837 -0.10189999639988 0.10052999854088 -0.11270000040531 -0.13294999301434 0.15951000154018 0.14905999600887 -0.095577999949455 0.26991999149323 0.01105699967593 0.056568000465631 0.021385999396443 0.20215000212193 0.00048588999197818 0.53359997272491 -0.22946999967098 0.29275000095367 0.17377999424934 0.2542299926281 -0.10976000130177 0.058816000819206 0.014615999534726 -0.043060000985861 0.1073200032115 -0.02814899943769 -0.19180999696255 0.10249999910593 -0.063891999423504 0.012737000361085 -0.12913000583649 0.015037000179291 0.26561999320984 -0.017048999667168 -0.06071599945426 -0.094919003546238 0.017774999141693 0.13221000134945 0.16830000281334 -0.19323000311852 -0.17611999809742 0.075506001710892 0.18939000368118 0.12508000433445 -0.19879999756813 -0.16017000377178 -0.21092000603676 0.46933001279831 0.044746998697519 0.098348997533321 0.011637000367045 0.2228100001812 -0.010836999863386 -0.048330001533031 -0.47334998846054 -0.36811000108719 -0.13592000305653 -0.15085999667645 0.25415998697281 0.069531001150608 0.1421100050211 -0.26703000068665 -0.12590000033379 0.12076000124216 -0.26116999983788 0.033023998141289 -0.034398000687361 -0.13967999815941 0.13446000218391 -0.16708999872208 0.15002000331879 -0.13723999261856 0.091225996613503 -0.27717998623848 0.020098000764847 0.26919001340866 0.43015998601913 0.094019003212452 -0.085496000945568 -0.25192001461983 -0.11644999682903 -0.039733998477459 0.0046737999655306 0.5417799949646 -0.16636000573635 0.34545999765396 0.098500996828079 0.47819000482559 -0.38427999615669 -0.32379999756813 -0.14822000265121 -0.47817000746727 0.16704000532627 -0.064505003392696 0.11834000051022 -0.34479999542236 0.09689100086689 0.32308998703957 0.4147099852562 0.194629997015 -0.20891000330448 -0.12223000079393 -0.058297999203205 -0.20268000662327 0.29480001330376 0.04339699819684 0.10112000256777 0.27177000045776 -0.52123999595642 -0.07379399985075 0.044808000326157 0.4138799905777 0.088781997561455 0.62255001068115 -0.072391003370285 0.090129002928734 0.15428000688553 0.023163000121713 -0.13028000295162 0.061762001365423 0.33803001046181 -0.091581001877785 0.21039000153542 0.051079999655485 0.19183999300003 0.1044400036335 0.21379999816418 -0.35091000795364 -0.23702000081539 0.038398999720812 -0.10030999779701 0.18358999490738 0.025178000330925 -0.1297699958086 0.37130001187325 0.18887999653816 -0.0042738001793623 -0.1064499989152 -0.25810000300407 -0.044629000127316 0.082745000720024 0.097800999879837 0.25044998526573
of 0.060215998440981 0.21798999607563 -0.042490001767874 -0.3861800134182 -0.15388000011444 0.034634999930859 0.22243000566959 0.21717999875546 0.0068482998758554 2.4375 -0.27417999505997 0.13571999967098 0.31086000800133 -0.063206002116203 0.00038225000025705 -0.1859699934721 -0.19333000481129 1.4447000026703 -0.38541001081467 -0.28549000620842 0.075626999139786 -0.036798998713493 -0.46068000793457 -0.016835000365973 0.19821000099182 -0.092745997011662 0.18953999876976 -0.00032647998887114 -0.17080999910831 0.50358998775482 0.46255999803543 0.26901000738144 -0.12256000190973 0.24713000655174 0.069305002689362 -0.20777000486851 -0.44560000300407 0.30223000049591 -0.0098344003781676 0.32771998643875 0.11038000136614 0.4127100110054 -0.15853999555111 -0.05698300153017 0.38918000459671 -0.2115799933672 -0.13307000696659 0.40406000614166 0.174899995327 0.053948998451233 0.10983999818563 -0.184760004282 -0.054014001041651 0.040111999958754 -0.1017500013113 0.12661999464035 0.069709002971649 -0.24071000516415 -0.20995000004768 -0.051380999386311 0.28218999505043 0.18598000705242 -0.50180000066757 0.27572000026703 -0.1849700063467 -0.18399000167847 0.1569599956274 -0.038444001227617 -0.5223799943924 0.22753000259399 0.048672001808882 -0.078836999833584 0.065448001027107 0.18399000167847 0.40211001038551 -0.12745000422001 -0.12302000075579 0.31071999669075 0.099587999284267 0.036047000437975 -0.25946000218391 0.36127999424934 0.12748000025749 -0.1866700053215 0.16502000391483 -0.39120000600815 -0.67549002170563 0.11291000247002 0.040743000805378 0.034972999244928 -0.040910001844168 -0.039790999144316 -0.40544000267982 -0.015867000445724 0.102389998734 0.046868000179529 -0.082776002585888 0.015131999738514 -0.14899000525475 -0.25124999880791 0.25244000554085 -0.1185100004077 -0.34126999974251 0.016516000032425 0.3040499985218 -0.54100000858307 0.30500000715256 0.39065000414848 0.42361998558044 -0.41721001267433 -0.054246999323368 -0.26014000177383 -0.14047999680042 -0.1416600048542 -0.021050000563264 0.050822000950575 -0.078052997589111 0.4592199921608 0.175980001688 -0.015699999406934 0.091179996728897 0.034262999892235 -0.49994999170303 0.02857399918139 0.12067999690771 0.19780999422073 -0.013024999760091 -0.2241799980402 0.12502999603748 0.14653000235558 -0.23084999620914 0.21987000107765 -0.059321001172066 -0.088169001042843 -0.12520000338554 0.0075111999176443 -0.22420999407768 0.62139999866486 0.20090000331402 -0.028990000486374 -0.65073001384735 0.0053505999967456 -0.1207299977541 0.2098799943924 -0.16840000450611 0.041825998574495 0.054581999778748 0.35247001051903 0.2005999982357 0.031902998685837 -0.053307000547647 -0.44009000062943 0.22495000064373 -0.30616000294685 -0.32855001091957 -0.015778999775648 -0.13912999629974 0.3430899977684 -0.1356900036335 -0.22276000678539 0.14294999837875 0.055009998381138 -0.10615999996662 0.23597000539303 -0.20701000094414 -0.30963000655174 0.13527999818325 -0.16143999993801 0.29107999801636 0.12301000207663 0.23649999499321 -0.26153001189232 0.31022000312805 0.20611999928951 -0.1988500058651 0.10971000045538 -0.0018054000101984 0.14620999991894 0.15176999568939 -0.44679999351501 0.0067432997748256 -0.02878399938345 0.13820999860764 -0.16565999388695 -0.45517000555992 0.016622999683022 0.10702999681234 -0.4839900135994 0.040033001452684 0.049625001847744 -0.26453998684883 -0.14679999649525 0.13650999963284 0.15261000394821 0.067521996796131 0.5040500164032 -0.18848000466824 0.15255999565125 -0.26996999979019 0.055578000843525 0.047077000141144 -0.17847999930382 -0.33566999435425 -0.031479999423027 0.19107000529766 0.18817999958992 0.18777999281883 0.18312999606133 -0.36399999260902 -0.0054127001203597 -0.15762999653816 0.16385999321938 -0.084827996790409 -0.19837999343872 -0.40454000234604 0.4103100001812 -0.41392999887466 0.029771000146866 0.10543999820948 -0.11294999718666 -0.068075999617577 -0.22371999919415 -0.19084000587463 -0.080269001424313 -0.3834500014782 0.064712002873421 0.23111000657082 0.21408000588417 0.28038001060486 0.14221000671387 -0.20695999264717 0.015874000266194 -0.1411200016737 0.089859001338482 -0.21533000469208 -0.020105000585318 0.22702999413013 0.083425000309944 -0.29580000042915 0.018036000430584 0.1988500058651 0.17793999612331 0.13687999546528 -0.10301999747753 0.029650999233127 0.051270999014378 -0.14787000417709 -0.41824001073837 0.019827999174595 -0.26385000348091 -0.074653998017311 -0.015718000009656 0.48094001412392 0.12492000311613 -0.11409000307322 0.58126997947693 0.095835998654366 -0.095912002027035 -0.057434998452663 0.13883000612259 0.10306999832392 0.081362001597881 -0.46689999103546 0.50704997777939 0.021685000509024 -0.071622997522354 -0.063827000558376 -0.11153999716043 0.61791998147964 -0.56328999996185 0.02356499992311 0.18040999770164 -0.25780001282692 -0.50955998897552 0.14736999571323 -0.033316999673843 -0.037053000181913 0.24062000215054 0.12640999257565 -0.02709100022912 0.40389999747276 -0.028359999880195 -0.022235000506043 -0.11492999643087 -0.22849999368191 -0.057459998875856 0.29519999027252 -0.21913999319077 -0.13307000696659 -0.23646999895573 -0.42484000325203 0.11606000363827 0.0048131002113223 -0.39629000425339 -0.26822999119759 0.32919999957085 -0.17597000300884 0.11709000170231 -0.16692000627518 -0.094085000455379
a 0.043797999620438 0.024778999388218 -0.20937000215054 0.49744999408722 0.36019000411034 -0.37503001093864 -0.052078001201153 -0.60554999113083 0.036743998527527 2.2084999084473 -0.23388999700546 -0.06836000084877 -0.22355000674725 -0.053989000618458 -0.1519799977541 -0.17318999767303 0.053355000913143 1.6484999656677 -0.047991000115871 -0.085311003029346 -0.1571200042963 -0.6442499756813 -0.39818999171257 0.27799999713898 0.15364000201225 0.03167799860239 0.055413998663425 0.015938999131322 0.31850999593735 -0.058979000896215 0.038584001362324 0.1076999977231 0.10409999638796 -0.077345997095108 0.37395998835564 -0.21481999754906 0.38319998979568 -0.27737000584602 -0.18352000415325 -0.83837997913361 0.34123998880386 0.58164000511169 0.18543000519276 -0.31027999520302 0.17666000127792 -0.069421000778675 -0.34422001242638 -0.13664999604225 -0.10823000222445 0.23636999726295 -0.32923001050949 0.61347997188568 0.1972000002861 0.08712299913168 0.10785000026226 0.30730000138283 0.13756999373436 0.30809000134468 0.24331000447273 -0.29422000050545 -0.0098214000463486 0.55674999952316 -0.048879999667406 0.099468000233173 0.30542999505997 -0.37597000598907 -0.19525000452995 0.046245999634266 -0.036674998700619 0.34022998809814 0.14904999732971 0.097800001502037 -0.26664000749588 0.056834001094103 -0.043200999498367 -0.2333800047636 0.13110999763012 -0.35741999745369 -0.36070001125336 0.30996999144554 -0.19727000594139 -0.1431999951601 -0.16746999323368 0.00042435000068508 -0.15119999647141 0.067561998963356 -0.38644000887871 0.02534900046885 0.24918000400066 -0.23954999446869 -0.15614999830723 0.4986799955368 0.0082758003845811 -0.19120000302792 -0.14905999600887 0.4875699877739 -0.015281000174582 0.010196000337601 0.37641999125481 -0.019460000097752 -0.2783499956131 0.16355000436306 -0.24127000570297 -0.21404999494553 -0.21561999619007 -0.79697000980377 0.34321001172066 0.093208998441696 0.073977001011372 -0.27147001028061 0.20539000630379 0.1506099998951 0.020733999088407 0.11266999691725 0.028713999316096 0.29670000076294 -0.21266999840736 0.43213999271393 0.12788000702858 0.29249000549316 0.19055999815464 -0.29113000631332 -0.11382000148296 -0.038242001086473 -0.20290000736713 0.18300999701023 -0.1666100025177 -0.27116000652313 0.0012684999965131 0.071704000234604 -0.18582999706268 0.089850001037121 -0.039895001798868 0.39478999376297 0.0053210998885334 -0.00061548000667244 -0.27081999182701 -0.089781999588013 -0.28790000081062 -0.14865000545979 -1.3746000528336 0.16515000164509 0.2059800028801 0.1525200009346 0.034722998738289 -0.38530999422073 -0.094573996961117 -0.19870999455452 0.5023900270462 -0.28701999783516 -0.088726997375488 0.056880999356508 0.13634000718594 0.19033999741077 -0.19352999329567 0.40505999326706 -0.19316999614239 0.22908000648022 0.10055000334978 -0.26894998550415 -0.034726999700069 -0.084009997546673 0.057806000113487 0.011075999587774 -0.043349001556635 -0.26916998624802 -0.19333000481129 0.22180999815464 0.26122999191284 -0.11761000007391 0.10091999918222 -0.15078000724316 0.47152999043465 0.11253000050783 -0.2674899995327 -0.038784999400377 -0.036520000547171 -0.08924800157547 -0.24426999688148 -0.041381001472473 -0.02178500033915 -0.35738000273705 -0.063409000635147 -0.53983002901077 -0.010111999697983 0.00041238000267185 -0.097048997879028 0.42627999186516 -0.2134899944067 -0.41054999828339 -0.24940000474453 -0.033571001142263 -0.49540001153946 0.15557000041008 0.19881999492645 0.10497999936342 -0.24371999502182 0.11428999900818 -0.039278998970985 -0.36258000135422 0.10317999869585 0.12899999320507 -0.41784998774529 -0.04160699993372 0.33522000908852 0.073186002671719 0.13361999392509 0.010812000371516 0.05264500156045 0.18801000714302 -0.30184999108315 0.20332999527454 -0.32258000969887 -0.24672999978065 0.21123999357224 0.79132002592087 -0.41539001464844 0.36219999194145 0.099852003157139 -0.035378001630306 -0.041900001466274 -0.13851000368595 -0.063254997134209 0.1363500058651 0.09086299687624 -0.39939999580383 0.099062003195286 0.32210001349449 -0.12256000190973 -0.085905998945236 -0.10217999666929 0.26350000500679 -0.18689000606537 -0.18559999763966 -0.43922999501228 -0.32499998807907 -0.19910000264645 0.17831000685692 -0.27283000946045 0.33472999930382 0.082382000982761 0.12825000286102 0.39274999499321 -0.034928999841213 0.16147999465466 -0.026713000610471 0.40128999948502 -0.39502999186516 -0.064823001623154 -0.089819997549057 -0.066592000424862 -0.34536999464035 0.04628299921751 0.3683699965477 -0.024573000147939 0.32212999463081 0.30641001462936 -0.28112000226974 0.006644899956882 0.087742999196053 -0.034170001745224 0.60373002290726 0.42120000720024 -0.073348999023438 0.2668200135231 -0.15860000252724 0.23765000700951 -0.006260400172323 0.15236000716686 -0.23409000039101 0.31633999943733 -0.087860003113747 -0.15747000277042 -0.24954999983311 -0.18765999376774 -0.096743002533913 -0.27994000911713 -0.24334000051022 0.3264299929142 0.29905998706818 0.427630007267 0.22266000509262 -0.17463999986649 -0.01991599984467 -0.31205999851227 -0.34009000658989 -0.14993000030518 -0.28817999362946 0.14749999344349 -0.0405029989779 -0.10346999764442 0.0033633999992162 0.21760000288486 -0.20408999919891 0.092414997518063 0.08042100071907 -0.061246000230312 -0.300989985466 -0.14584000408649 0.28187999129295
in 0.089187003672123 0.25791999697685 0.26282000541687 -0.029364999383688 0.47187000513077 -0.10389000177383 -0.10012999922037 0.081229999661446 0.20882999897003 2.5725998878479 -0.67853999137878 0.036120999604464 0.13085000216961 0.0012461999431252 0.14768999814987 0.26925998926163 0.3714399933815 1.3501000404358 -0.11326000094414 -0.23036000132561 -0.26574999094009 -0.18076999485493 0.092454999685287 -0.16214999556541 0.15003000199795 -0.34547001123428 0.072295002639294 0.40659001469612 0.010021000169218 -0.0079257003962994 -0.11434999853373 0.017007999122143 -0.29789000749588 0.19078999757767 0.37112000584602 -0.26587998867035 0.16211999952793 0.065468996763229 -0.31780999898911 -0.032260000705719 0.081969000399113 0.34450000524521 -0.17362000048161 -0.35745000839233 0.054487001150846 0.39941000938416 0.13698999583721 -0.022066000849009 0.11025000363588 -0.41898000240326 0.12759999930859 -0.095868997275829 -0.17944000661373 -0.17442999780178 0.27301999926567 -0.19463999569416 0.26747000217438 -0.2824099957943 0.16380000114441 -0.1151800006628 0.013195999898016 -0.10615999996662 -0.36092999577522 0.023633999750018 0.13463999330997 0.021652000024915 -0.27094000577927 -0.018736999481916 0.1001700013876 0.36070999503136 -0.093951001763344 0.47633999586105 0.12873999774456 0.0011867999564856 0.13770000636578 -0.14034000039101 -0.1887000054121 -0.16404999792576 -0.15349000692368 0.32346999645233 -0.17615999281406 0.35229998826981 -0.023530999198556 -0.19121000170708 -0.054809000343084 -0.09952100366354 -0.30055999755859 0.36632001399994 -0.21509000658989 0.074123002588749 -0.20266999304295 0.12860000133514 -0.38111001253128 -0.025482000783086 0.45102998614311 0.088633000850677 0.36287999153137 -0.23406000435352 -0.08602400124073 -0.50603997707367 0.034242000430822 0.43998000025749 -0.083022996783257 -0.11969000101089 0.68686002492905 -0.34114998579025 0.2122800052166 0.40038999915123 0.26366999745369 -0.3714399933815 0.1620599925518 -0.42853999137878 0.078657999634743 -0.29049998521805 0.21727000176907 -0.27483999729156 0.35886999964714 0.2705500125885 -0.11326000094414 -0.14847999811172 -0.0050658998079598 -0.076861999928951 0.078621000051498 -0.24921999871731 0.42026001214981 -0.069697998464108 0.071594998240471 0.0071665002033114 0.27472999691963 -0.15663999319077 0.257129997015 -0.058460999280214 -0.29732999205589 -0.090995997190475 0.5246000289917 0.14889000356197 -0.20882999897003 -0.13004000484943 -0.2002200037241 0.45030000805855 -0.34654000401497 -0.26006999611855 0.35247001051903 -0.34757000207901 0.033737998455763 0.19907000660896 -0.32912001013756 -0.084688998758793 0.65319001674652 0.20953999459743 0.079273998737335 0.10859999805689 0.0026465998962522 -0.12842999398708 -0.22811000049114 0.051500998437405 -0.2742899954319 0.14505000412464 -0.18430000543594 -0.34825000166893 -0.11700999736786 0.34033998847008 0.075847998261452 0.082390002906322 -0.39188000559807 -0.022312000393867 -0.080372996628284 0.14476999640465 0.29701000452042 -0.10523000359535 0.092892996966839 0.029812999069691 -0.11761000007391 0.16308000683784 0.098382003605366 0.46151998639107 -0.16200000047684 -0.24560000002384 0.20293000340462 -0.11343999952078 0.057902000844479 -0.19528000056744 -0.20140999555588 -0.22874000668526 -0.014100999571383 0.26370000839233 -0.10028000175953 -0.051895998418331 0.18859000504017 -0.17767000198364 -0.11556000262499 0.12099999934435 0.1730300039053 0.117729999125 0.034837000072002 0.28485000133514 -0.30447000265121 0.061023999005556 -0.2644200026989 -0.081134997308254 -0.044523999094963 -0.036931000649929 -0.15217000246048 0.29175001382828 0.44925999641418 -0.28874999284744 0.33193001151085 -0.012419999577105 -0.18805000185966 -0.19832000136375 -0.19735999405384 0.26892998814583 0.11106000095606 -0.67382997274399 -0.15180000662804 -0.16615000367165 -0.16562999784946 0.0093670999631286 -0.15944999456406 -0.33467999100685 0.22037999331951 -0.16723999381065 -0.15350000560284 -0.61782002449036 -0.1725800037384 0.088927999138832 0.019410999491811 0.18296000361443 0.32967001199722 -0.0024906001053751 -0.092079997062683 0.51399999856949 0.0042484002187848 -0.084376998245716 -0.71447998285294 -0.22147999703884 -0.048349998891354 0.043761000037193 -0.29376000165939 -0.22287000715733 0.18001000583172 0.072196997702122 0.46498998999596 0.056465998291969 0.40843999385834 -0.23641000688076 -0.038945998996496 0.087362997233868 -0.21900999546051 -0.32310000061989 -0.1998900026083 -0.31279999017715 -0.067656002938747 -0.22596000134945 0.090925998985767 0.2836500108242 0.31461998820305 0.46081998944283 -0.024870999157429 -0.1460500061512 0.3045400083065 0.17703999578953 -0.011311000213027 0.26807001233101 -0.032460998743773 -0.16643999516964 -0.15312999486923 -0.20426000654697 -0.30820000171661 -0.24590000510216 0.08584800362587 -0.11766999959946 -0.063055999577045 -0.18132999539375 -0.18628999590874 -0.17693999409676 0.29618000984192 0.35986998677254 0.0020101999398321 0.38615998625755 0.36711999773979 -0.0551120005548 -0.34733000397682 -0.072677999734879 -0.05111899971962 -0.29069000482559 0.053598001599312 0.019587000831962 0.16808000206947 -0.27456000447273 -0.097179003059864 -0.054540999233723 0.19228999316692 -0.48127999901772 -0.20304000377655 0.19368000328541 -0.32545998692513 0.14420999586582 -0.16899999976158 0.26500999927521
is -0.084960997104645 0.50199997425079 0.0023823000956327 -0.16754999756813 0.30720999836922 -0.23761999607086 0.1606899946928 -0.36785998940468 -0.058347001671791 2.4990000724792 -0.0023646999616176 0.010731999762356 -0.3042199909687 0.08457899838686 -0.040298998355865 -0.4156199991703 -0.024493999779224 1.4690999984741 -0.052932001650333 -0.074413001537323 -0.39243999123573 -0.32534998655319 -0.22333000600338 0.0056822998449206 0.35675001144409 0.19445000588894 0.056761998683214 -0.045501999557018 -0.28104999661446 -0.058896001428366 -0.098626002669334 0.092177003622055 0.33171999454498 -0.039967000484467 -0.1176600009203 0.048372998833656 -0.062240999191999 -0.10412999987602 0.00099263002630323 -0.48925000429153 0.34786000847816 0.32723999023438 0.13882000744343 -0.19916999340057 0.12995000183582 0.06054899841547 -0.23713999986649 -0.51295000314713 -0.37395998835564 0.12902000546455 0.055796999484301 0.33443999290466 -0.18025000393391 -0.034740000963211 0.28323000669479 -0.095301002264023 0.21142999827862 -0.076149001717567 0.15069000422955 -0.17441000044346 -0.007476800121367 -0.078286997973919 -0.12750999629498 0.22544999420643 0.035101000219584 -0.61014997959137 -0.26811999082565 0.061631999909878 -0.30502998828888 -0.13404999673367 -0.44271001219749 -0.17720000445843 0.17663000524044 -0.31209999322891 -0.25722000002861 -0.024857999756932 0.072503998875618 -0.079759001731873 -0.19213999807835 0.59601998329163 0.12880000472069 -0.074629001319408 -0.15812000632286 0.36394000053406 0.23055000603199 -0.42175000905991 -0.090650998055935 -0.30085000395775 0.17939999699593 -0.29785999655724 -0.10642000287771 0.47238999605179 -0.13837000727654 -0.10160999745131 0.080133996903896 0.040715001523495 -0.36976000666618 -0.037066001445055 0.10435999929905 0.17903999984264 0.15702000260353 -0.074670001864433 -0.29431000351906 0.12828999757767 0.055211000144482 -0.43906000256538 -0.068231001496315 0.097107000648975 -0.28209000825882 -0.08652800321579 -0.24203999340534 0.028734000399709 -0.21509000658989 0.027151999995112 -0.17995999753475 0.19316999614239 -0.27928999066353 0.29414999485016 -0.10965000092983 -0.10431999713182 -0.5217000246048 -0.04678900167346 0.13742999732494 -0.15518000721931 -0.10358999669552 0.18852999806404 -0.12683999538422 -0.67277997732162 0.034483000636101 -0.22936999797821 -0.098072998225689 -0.070156998932362 0.084374003112316 0.26594001054764 0.23104000091553 -0.29251000285149 -0.08720900118351 -0.23341999948025 0.063758999109268 -0.13556000590324 -0.84046000242233 0.2468100041151 0.30498000979424 0.35438001155853 0.14136999845505 -0.36719998717308 0.23320999741554 -0.15497000515461 0.48363998532295 0.014711000025272 -0.24176000058651 0.037588998675346 0.19829000532627 -0.069403000175953 -0.0017361999489367 0.04169400036335 -0.34193000197411 -0.20034000277519 -0.4558100104332 -0.12503999471664 0.13954000174999 0.032274998724461 -0.0052129998803139 0.045421998947859 -0.0026573999784887 -0.26265999674797 0.064167998731136 -0.14230999350548 0.00035709000076167 -0.23252999782562 0.027614999562502 -0.074281997978687 0.18671000003815 -0.12994000315666 -0.43731001019478 0.14550000429153 0.04483800008893 -0.19021999835968 -0.1540099978447 0.14188000559807 0.098269000649452 -0.042929999530315 -0.2747800052166 -0.332239985466 -0.32166999578476 -0.10508999973536 -0.19815999269485 -0.065096996724606 -0.091251000761986 0.19528000056744 -0.33296999335289 -0.15503999590874 -0.47688001394272 0.31984999775887 0.19886000454426 0.11501000076532 0.055757001042366 -0.054306998848915 0.28850999474525 0.27981999516487 0.013960000127554 -0.0012891000369564 -0.23127999901772 0.075396001338959 0.043586999177933 -0.13936999440193 -0.062935002148151 0.12567999958992 0.095234997570515 -0.085202999413013 -0.24241000413895 -0.048771001398563 0.095936998724937 -0.2234700024128 0.23502999544144 0.31516999006271 -0.014899999834597 0.21739000082016 -0.19430999457836 -0.23254999518394 -0.2296099960804 0.048296999186277 0.16050000488758 -0.016100000590086 0.042769998311996 -0.32366999983788 0.14679999649525 0.24550999701023 0.075506001710892 -0.039703000336885 -0.10321000218391 0.16193999350071 0.27131998538971 0.046348001807928 -0.092743001878262 -0.1492899954319 0.27377998828888 -0.36958000063896 -0.41530001163483 0.18401999771595 -0.049775000661612 0.069669999182224 0.13447000086308 0.17788000404835 -0.047586001455784 -0.36491000652313 -0.13732999563217 -0.4811899960041 0.2468100041151 -0.08984199911356 0.037939000874758 -0.18284000456333 0.47012001276016 -0.099583998322487 -0.18365000188351 -0.071820996701717 0.41607001423836 -0.18580999970436 0.18400000035763 -0.029028000310063 0.41227999329567 0.022856000810862 0.050914999097586 -0.11911000311375 0.081230998039246 0.13844999670982 0.046594999730587 -0.043974000960588 0.63600999116898 0.0037100999616086 0.093937002122402 -0.093442000448704 -0.47606000304222 -0.26427000761032 -0.023043999448419 -0.058240998536348 0.11439999938011 -0.051702000200748 0.35225000977516 0.25341001152992 0.57256001234055 0.22867000102997 0.0085401004180312 -0.062531001865864 -0.032118000090122 -0.15647000074387 -0.084343999624252 0.076667003333569 0.34514999389648 -0.19451999664307 0.087003000080585 -0.078201003372669 -0.069673001766205 -0.16992999613285 0.23598000407219 0.27549999952316 -0.067180000245571 -0.21511000394821 -0.26304000616074 -0.0060172998346388
for -0.17224000394344 0.18233999609947 -0.27847000956535 -0.08466599881649 0.25442001223564 -0.19403000175953 0.40685999393463 0.15083000063896 0.14669999480247 2.0234999656677 -0.37481999397278 0.35648000240326 -0.30889999866486 -0.22356000542641 -0.14904999732971 -0.13721999526024 0.0084057003259659 1.4287999868393 -0.27068001031876 0.1377200037241 -0.36068001389503 -0.10639999806881 -0.25892001390457 -0.021405000239611 -0.0918869972229 0.19684000313282 -0.072567999362946 -0.10204999893904 0.24116000533104 0.11358000338078 -0.078850001096725 -0.33526000380516 0.10925000160933 0.33524000644684 0.27432000637054 -0.31051000952721 -0.1097500026226 -0.457239985466 0.35293000936508 0.39173999428749 0.18019999563694 0.54141998291016 -0.28703999519348 -0.25404000282288 -0.039926998317242 0.10898999869823 -0.035689998418093 0.38253998756409 -0.015886999666691 -0.026143999770284 -0.15714000165462 -0.044737000018358 0.014968000352383 -0.0070873000659049 0.087658002972603 0.0077366000041366 -0.14569999277592 -0.06174099817872 -0.45388001203537 0.30605000257492 -0.017014000564814 -0.063984997570515 -0.29787001013756 0.20398999750614 0.32646998763084 -0.24086000025272 -0.38758000731468 0.42238000035286 -0.26736000180244 -0.29943001270294 0.23768000304699 0.17013999819756 0.044736001640558 -0.31538999080658 0.22578999400139 -0.055087000131607 0.37389001250267 -0.23560999333858 0.19717000424862 0.35052999854088 -0.41176000237465 0.48028999567032 -0.073149003088474 -0.087249003350735 0.15242999792099 -0.11237999796867 -0.40694999694824 0.23126000165939 0.42526999115944 0.54039001464844 -0.18653999269009 -0.12387999892235 0.20174999535084 0.15884999930859 -0.24433000385761 0.13816000521183 -0.052749998867512 -0.37713000178337 0.25315999984741 -0.15170000493526 -0.03872599825263 0.10582999885082 -0.22373999655247 -0.35831999778748 0.55519998073578 -0.40404999256134 0.19801999628544 0.37441998720169 0.39109000563622 -0.20125000178814 0.21446999907494 -0.2177100032568 0.19882999360561 -0.12364999949932 0.231350004673 0.055844001471996 -0.14366999268532 0.45214998722076 0.090552002191544 0.22352999448776 0.1686400026083 0.12944999337196 -0.1793799996376 0.0059465998783708 0.3060300052166 -0.037981998175383 -0.23420000076294 -0.14291000366211 0.16587999463081 0.14113000035286 0.11158999800682 -0.12222000211477 -0.21142999827862 -0.59927999973297 -0.12140999734402 0.18523000180721 0.0842399969697 0.27562999725342 0.00084163999417797 -0.31464999914169 -0.76390999555588 -0.095779001712799 0.21615999937057 -0.3711099922657 -0.37918001413345 -0.054990999400616 -0.07710599899292 -0.026822000741959 0.19469000399113 0.068216003477573 -0.12414000183344 -0.13466000556946 -0.20795999467373 -0.60139000415802 4.0447001083521e-05 -0.04169400036335 0.29249998927116 0.16605000197887 0.21887999773026 -0.5090399980545 0.25067999958992 0.070134997367859 -0.21918000280857 -0.21602000296116 -0.18442000448704 -0.43145999312401 0.19785000383854 0.0080225998535752 0.36722001433372 -0.13147999346256 0.023997999727726 0.13470999896526 0.26752001047134 0.024871999397874 -0.11738999933004 0.13945999741554 -0.036711998283863 -0.20016999542713 0.15538999438286 0.31479999423027 -0.14526000618935 -0.57819002866745 -0.44641000032425 0.096624001860619 -0.054570998996496 -0.18836000561714 0.073662996292114 0.035027999430895 -0.10157000273466 -0.087623998522758 -0.34327998757362 0.077514998614788 -0.1749400049448 -0.093473002314568 0.11018999665976 0.32449999451637 -0.0027807999867946 -0.042047999799252 0.021792000159621 0.077156998217106 0.0020113000646234 -0.018634999170899 -0.063575997948647 0.091266997158527 0.29855000972748 0.14583000540733 -0.052657000720501 0.42096000909805 0.10550999641418 0.42326000332832 -0.13390000164509 -0.057948000729084 0.0091966995969415 -0.28812998533249 0.21663999557495 0.53437000513077 -0.38690000772476 -0.31942999362946 -0.19912000000477 0.052301999181509 -0.10621000081301 0.10386999696493 -0.26914000511169 -0.22387999296188 -0.12387000024319 -0.056267999112606 0.045106999576092 0.15680000185966 0.0015951000386849 0.18828000128269 -0.15571999549866 0.069977000355721 0.094143003225327 -0.012489000335336 -0.069912999868393 -0.2530600130558 0.16791999340057 -0.12538999319077 -0.13383999466896 0.1368999928236 0.16830000281334 0.024173999205232 -0.27103000879288 0.14757999777794 0.41991999745369 -0.011811000294983 -0.17552000284195 0.041223000735044 -0.084339998662472 -0.15541000664234 -0.1433199942112 0.21602000296116 -0.41170001029968 -0.066169001162052 0.10570000112057 0.29458999633789 0.30022999644279 0.024445999413729 -0.2504999935627 0.099515996873379 -0.09052799642086 0.36511999368668 -0.14801999926567 0.38177001476288 -0.044691000133753 -0.39546999335289 0.0878039970994 0.21347999572754 0.52222001552582 -0.26096999645233 0.36305001378059 -0.1525200009346 -0.35695001482964 0.070761002600193 0.0092821000143886 -0.0083662997931242 0.37713000178337 0.12370999902487 -0.077068999409676 0.36059999465942 0.085336998105049 0.27766001224518 -0.065084002912045 -0.078498996794224 0.011443000286818 -0.27166000008583 0.18490000069141 -0.28824999928474 -0.044511001557112 -0.1029300019145 -0.20069999992847 -0.41392999887466 0.29052999615669 -0.27788001298904 -0.13943000137806 -0.12238000333309 -0.081082999706268 -0.12668000161648 -0.43856000900269 0.38765001296997
) -0.27142000198364 0.047373998910189 -0.17278000712395 -0.029084000736475 -0.21909999847412 0.0045969001948833 -0.27149000763893 -0.46441000699997 -0.04755600169301 0.9979100227356 -0.1929299980402 0.91128998994827 0.35826000571251 -0.49970999360085 0.080962002277374 0.46658998727798 -0.12973999977112 1.5291999578476 -0.27175000309944 0.0038916999474168 -0.15561999380589 -0.2007600069046 -0.3751699924469 0.45925998687744 0.27553999423981 0.18132999539375 -0.18089999258518 -0.13067999482155 0.021730000153184 -0.17224000394344 0.049791999161243 -0.15613000094891 -0.38666000962257 0.18682999908924 0.31762999296188 -0.033773001283407 0.085813000798225 0.51728999614716 -0.12368000298738 0.21288000047207 0.03991099819541 -0.0087668998166919 0.35965999960899 0.19490000605583 -0.21066999435425 -0.16924999654293 -0.39004999399185 0.58996999263763 -0.028611000627279 0.044077999889851 0.21146999299526 -0.12699000537395 0.37830001115799 -0.025322999805212 -0.010483000427485 0.40858998894691 -0.049121998250484 -0.16504999995232 0.075928002595901 -0.25894001126289 -0.068777002394199 -0.61001002788544 0.24347999691963 0.074593998491764 -0.41174998879433 -0.4157800078392 0.24705000221729 -0.050014000386 -0.42533999681473 0.20251999795437 -0.1283999979496 0.32670000195503 0.055810000747442 0.029154999181628 -0.046569000929594 0.1557500064373 0.37999999523163 0.015464999713004 0.39171001315117 -0.14124000072479 0.26504999399185 -0.31468999385834 -0.0045027998276055 0.10304000228643 -0.27603000402451 -0.45419999957085 0.40628999471664 -0.51105999946594 -0.27663999795914 -0.36557999253273 0.28786998987198 0.15313999354839 0.099331997334957 -0.5489199757576 0.37962999939919 -0.37696000933647 -0.57155001163483 0.25861999392509 0.067689999938011 0.10761000216007 0.18585999310017 -0.21104000508785 -0.18117000162601 0.36248001456261 -0.014693999662995 1.1626000404358 0.14313000440598 -0.36970999836922 0.57647001743317 0.35192999243736 0.21594999730587 0.15456999838352 -0.14173999428749 0.34819000959396 -0.32620999217033 0.13874000310898 0.13515999913216 -0.1363999992609 -0.36217001080513 -0.24574999511242 -0.073058001697063 -0.47400000691414 0.380479991436 -0.15135000646114 -0.046390999108553 0.078147999942303 -0.0097139002755284 0.23088000714779 0.28892999887466 0.13066999614239 0.4229199886322 0.047901000827551 0.085299998521805 0.17924000322819 -0.055456999689341 0.065007999539375 0.092244997620583 0.046950999647379 0.51695001125336 0.33188000321388 -0.010770999826491 0.13184000551701 0.40187999606133 -0.3055300116539 -0.23789000511169 0.44211998581886 -0.28064998984337 -0.54883998632431 -0.023403000086546 -0.24175000190735 -0.025291999801993 -0.027840999886394 -0.2077299952507 0.03112499974668 -0.19548000395298 0.10747999697924 -0.23370000720024 0.041838001459837 0.3827899992466 0.53459000587463 0.025144999846816 -0.1594399958849 -0.25687000155449 -0.34176999330521 -0.4556500017643 -0.14880000054836 -0.25407999753952 -0.21492999792099 0.5395200252533 0.43612000346184 0.31452000141144 -0.35181999206543 -0.11373999714851 0.18975999951363 -0.023342000320554 -0.4899699985981 0.39153000712395 -0.098890997469425 0.34176999330521 -0.036044001579285 0.1078400015831 -0.2233500033617 -0.16835999488831 -0.1126099973917 0.0225879997015 -0.045977998524904 -0.63700997829437 0.6387500166893 0.2921099960804 -0.14036999642849 -0.0004649999900721 0.23259000480175 0.22055999934673 0.14419999718666 -0.055286999791861 -0.40320000052452 -0.59211999177933 -0.58346998691559 -0.079878002405167 0.58508002758026 0.044086001813412 -0.073609001934528 -0.16291999816895 -0.1958300024271 0.31022000312805 -0.37907999753952 -0.1078199967742 -0.032382998615503 0.070745997130871 -0.25097998976707 0.36191999912262 -0.44435998797417 0.34191000461578 -0.47975000739098 0.34404000639915 -0.11873999983072 0.27309998869896 0.040105998516083 -0.96983999013901 -0.0060398001223803 0.13572999835014 0.030415000393987 0.082437001168728 -0.39219999313354 0.65561002492905 -0.068264000117779 0.19780999422073 -0.29304999113083 0.09986899793148 0.074037000536919 -0.26451000571251 -0.29071998596191 0.16444000601768 0.12058000266552 0.25911000370979 -0.044502001255751 -0.31968998908997 -0.21965999901295 0.23207999765873 0.10516999661922 -0.1858000010252 -0.16446000337601 -0.25027000904083 0.22735999524593 -0.2574500143528 -0.41312998533249 -0.19934000074863 -0.16853000223637 -0.33733999729156 -0.63050997257233 0.052404001355171 0.33397999405861 0.12066999822855 -0.23063999414444 -0.25567999482155 0.30783998966217 0.36254999041557 -0.62382000684738 -0.079406000673771 0.30662998557091 -0.17709000408649 0.2843100130558 0.055277999490499 0.23969000577927 -0.11169999837875 -0.17384999990463 -0.44925001263618 -0.18732999265194 0.6922299861908 -0.029810000211 0.29047000408173 0.12942999601364 -0.43101000785828 0.22574000060558 0.4274699985981 0.064314000308514 -0.12063000351191 -0.067298002541065 -0.61697000265121 0.15217000246048 0.53115999698639 0.17282000184059 0.59587001800537 -0.33954000473022 0.098150998353958 -0.11003000289202 -0.12244000285864 -0.19744999706745 0.075209997594357 0.31784000992775 -0.21446000039577 -0.14782999455929 -0.15576000511646 0.13341000676155 -0.55435997247696 0.0660620033741 -0.24176999926567 -0.31911998987198 0.23538999259472 -0.071450002491474
( -0.18024000525475 0.0084106000140309 -0.30463001132011 0.20996999740601 0.085152998566628 0.033190999180079 -0.14968000352383 -0.32453000545502 0.20675000548363 0.94688999652863 0.076250001788139 0.50441998243332 0.16739000380039 -0.41582000255585 0.098140001296997 0.37983998656273 -0.13718000054359 1.3365000486374 -0.60321998596191 -0.13512000441551 -0.25602000951767 -0.28716999292374 -0.17937000095844 0.3192999958992 0.19085000455379 0.029797999188304 -0.11652000248432 -0.31351000070572 0.055654998868704 0.033468000590801 0.058226998895407 0.41947999596596 -0.33061000704765 0.15410999953747 0.33022001385689 0.28872001171112 0.18449999392033 0.49094998836517 0.15566000342369 0.19096000492573 0.072314999997616 -0.054701000452042 -0.018773000687361 -0.098779000341892 0.005156499799341 -0.26302999258041 -0.028071999549866 0.32355999946594 0.3928200006485 0.22547000646591 0.21595999598503 -0.083057999610901 0.5404599905014 -0.42236998677254 -0.24073000252247 0.40314000844955 0.15533000230789 -0.30432000756264 0.1982399970293 -0.29238998889923 0.0053721000440419 -0.44688999652863 -0.069153003394604 0.48750001192093 0.021772999316454 -0.48192998766899 0.25475999712944 0.029008999466896 -0.13652999699116 0.064076997339725 -0.097190998494625 0.40362000465393 -0.19747999310493 0.0053531001321971 0.016036000102758 0.117729999125 -0.045109000056982 0.066820003092289 0.33000999689102 0.094780996441841 0.24156999588013 -0.019592000171542 0.043072000145912 -0.088096000254154 -0.37907999753952 -0.49094000458717 0.59555000066757 -0.77986001968384 0.093843996524811 -0.6764600276947 0.34709000587463 0.22104999423027 -0.20964999496937 -0.7820600271225 0.21109999716282 -0.69657999277115 -0.25442999601364 0.24104000627995 0.042187001556158 -0.068806000053883 0.2393099963665 -0.20478999614716 -0.17995999753475 0.31466999650002 0.042614001780748 1.2378000020981 0.085702002048492 0.13865000009537 0.66280001401901 0.40988001227379 0.35321000218391 -0.29390999674797 -0.19530999660492 0.18253000080585 -0.62497001886368 0.052195001393557 -0.17832000553608 -0.25804999470711 -0.17566999793053 -0.09485000371933 0.10046999901533 -0.14768999814987 -0.12655000388622 -0.2100899964571 -0.059850998222828 -0.1421599984169 0.26877999305725 0.09782200306654 0.30096998810768 0.21554000675678 0.39259999990463 0.23264999687672 0.11982999742031 -0.0073537998832762 0.037879999727011 -0.10327000170946 0.23633000254631 -0.36351001262665 0.41523000597954 0.14762000739574 0.014396999962628 0.10372000187635 0.16819000244141 0.1565800011158 -0.23781999945641 0.16295999288559 -0.25731998682022 -0.51622998714447 0.16083000600338 -0.53880000114441 -0.36970999836922 -0.022583000361919 0.20642000436783 0.071116998791695 -0.31319001317024 0.092995002865791 -0.23937000334263 -0.14025999605656 0.54843997955322 0.34725001454353 -0.37286001443863 -0.24000999331474 -0.48917999863625 -0.13665999472141 -0.64770001173019 -0.092620998620987 -0.26449000835419 0.046390000730753 0.40459001064301 0.055465001612902 0.33713999390602 -0.17464999854565 -0.33395001292229 0.16241000592709 0.1113800033927 -0.21660999953747 0.36151999235153 -0.11680000275373 0.36517998576164 -0.47128000855446 0.069642998278141 -0.20814000070095 -0.20694999396801 -0.074396997690201 -0.26980000734329 -0.50068002939224 -0.55400002002716 0.92765998840332 0.15887999534607 -0.12366999685764 0.17296999692917 0.037990998476744 0.12056999653578 0.22339999675751 -0.32605999708176 -0.25955000519753 -0.80020999908447 0.18197999894619 0.3091099858284 0.5916799902916 -0.23446999490261 -0.18079000711441 -0.27123999595642 0.061317998915911 0.45408999919891 -0.64565998315811 0.41286998987198 -0.13634000718594 0.021207999438047 -0.34878000617027 0.35052999854088 -0.16378000378609 0.39476001262665 -0.63954001665115 0.01541000045836 0.0026330999098718 0.064989000558853 0.098089002072811 -1.0972000360489 0.21019999682903 -0.035525001585484 -0.26971000432968 0.10097999870777 -0.58704000711441 0.38558000326157 0.21325999498367 0.48111999034882 -0.38877999782562 0.2280700057745 0.19704000651836 -0.0056456997990608 -0.51630002260208 0.23728999495506 -0.13907000422478 0.13257999718189 -0.12783999741077 -0.2611899971962 -0.48804000020027 0.52094000577927 0.10420999675989 -0.28725999593735 -0.084513001143932 -0.078506000339985 0.10198999941349 -0.093572996556759 -0.46197998523712 -0.21051000058651 -0.43242999911308 -0.24761000275612 -0.38240998983383 0.28172999620438 0.23602999746799 0.026796000078321 -0.17918999493122 -0.23725000023842 0.13797000050545 0.69065999984741 -0.38673999905586 0.33155000209808 0.20949999988079 -0.065668001770973 0.18441000580788 -0.068565003573895 0.21284000575542 -0.36524999141693 -0.39484000205994 0.0088914996013045 -0.45963001251221 0.55124998092651 -0.61151999235153 0.36506998538971 -0.059502001851797 -0.4619500041008 0.43781998753548 -0.062003999948502 -0.20239999890327 -0.15647000074387 -0.19809000194073 -0.56356000900269 0.20182999968529 0.57283997535706 0.11670999974012 0.52003002166748 -0.35934001207352 0.51156997680664 -0.10921999812126 0.24574999511242 -0.28979000449181 0.25591999292374 0.21753999590874 -0.23319000005722 0.0032192999497056 0.48688998818398 0.041367001831532 -0.40026998519897 0.53949999809265 -0.23596000671387 -0.3855200111866 0.24323999881744 -0.17577999830246
on -0.070185996592045 0.15274000167847 -0.33085998892784 0.11608999967575 -0.1733600050211 -0.11860000342131 -0.26032999157906 -0.25731998682022 -0.25424000620842 2.1744000911713 -0.58533000946045 0.19230000674725 -0.21911999583244 -0.14132000505924 -0.30318000912666 0.27441999316216 0.053736999630928 1.3325999975204 -0.33961001038551 0.13244999945164 -0.011687000282109 0.29352000355721 0.15814000368118 0.38337001204491 0.33498001098633 -0.094141997396946 0.025341000407934 0.037714999169111 -0.0048970999196172 0.36386001110077 0.04093199968338 -0.051187999546528 -0.14556999504566 -0.15078000724316 -0.29910999536514 0.10567999631166 -0.43162000179291 0.23782999813557 -0.40836000442505 0.067004002630711 -0.32960999011993 0.16481000185013 -0.6120799779892 0.10864999890327 0.51402002573013 0.093598000705242 0.040137000381947 -0.075552001595497 -0.06165299937129 0.2410099953413 0.20611999928951 0.35556998848915 -0.26925000548363 0.13492000102997 -0.26603001356125 -0.042858999222517 -0.34983000159264 -0.19393000006676 -0.13899999856949 -0.24686999619007 0.38210999965668 0.15396000444889 0.11270999908447 0.39226999878883 0.37261998653412 -0.029870999976993 -0.078348003327847 0.13533000648022 0.20052999258041 -0.040987998247147 0.51762998104095 -0.16719999909401 0.10848999768496 -0.066262997686863 0.33539000153542 -0.20349000394344 -0.0060678999871016 -0.25020998716354 -0.11446999758482 0.092096000909805 0.10334999859333 0.1813600063324 -0.082612998783588 0.015607999637723 0.136230006814 0.37398999929428 0.085327997803688 -0.0597859993577 0.50907999277115 0.44097998738289 -0.13709999620914 -0.20949000120163 -0.19837999343872 0.17075000703335 0.017707999795675 -0.06063299998641 0.017310999333858 -0.097675003111362 0.14797000586987 -0.32390999794006 0.071085996925831 0.23612000048161 -0.26199999451637 -0.12026000022888 -0.078129999339581 -0.069082997739315 -0.052542001008987 0.026868000626564 0.33614000678062 -0.34024998545647 -0.1897400021553 -0.42293998599052 0.23576000332832 0.074527002871037 0.39296001195908 -0.36171001195908 0.12293999642134 -0.22299000620842 0.39384999871254 -0.083180002868176 0.36118000745773 0.36500999331474 0.052356000989676 -0.15402999520302 0.15366999804974 -0.13591000437737 -0.51990002393723 0.145019993186 0.19008000195026 -0.57504999637604 0.40053999423981 -0.48559999465942 -0.16852000355721 -0.23748999834061 -0.39897000789642 -0.03413499891758 0.37619999051094 0.35280999541283 -0.060511000454426 -0.053663000464439 -0.91062998771667 -0.29587000608444 0.13068999350071 -0.022816000506282 -0.031484998762608 -0.018865000456572 0.082726001739502 -0.13077999651432 0.095393002033234 -0.088602997362614 -0.32837998867035 0.23280000686646 0.21259999275208 -0.47372999787331 -0.69606000185013 -0.025523999705911 0.27180999517441 0.4607999920845 -0.25659000873566 0.14652000367641 -0.27127999067307 -0.11554999649525 -0.042915999889374 -0.086318999528885 0.17359000444412 -0.093851000070572 -0.19697000086308 0.16909000277519 0.47233000397682 0.12366999685764 0.15093000233173 0.010046999901533 0.017342999577522 0.14631000161171 0.030153999105096 0.46270000934601 0.14601999521255 0.0047356998547912 0.054487001150846 0.12037999927998 -0.066100001335144 0.32341998815536 0.20327000319958 -0.09663300216198 0.011859999969602 -0.14425000548363 0.33713999390602 0.01295099966228 -0.11800999939442 -0.19729000329971 -0.1368999928236 0.1185799986124 -0.2124499976635 -0.080210000276566 -0.30583000183105 0.60707002878189 -0.07167000323534 0.51621997356415 -0.37387999892235 0.3157300055027 -0.21254999935627 -0.087917000055313 -0.082767002284527 0.9614400267601 0.41898000240326 -0.15271000564098 -0.25720000267029 -0.42048999667168 -0.21563999354839 0.049302998930216 0.14531999826431 -0.016762999817729 -0.27325001358986 -0.12088999897242 -0.11886999756098 0.49483001232147 -0.49090999364853 0.027467999607325 -0.25468999147415 0.020075999200344 0.14192000031471 0.0043306001462042 -0.79448002576828 -0.1865099966526 0.28319001197815 -0.72605001926422 -0.0762609988451 -0.091381996870041 0.56002002954483 0.36109998822212 -0.095178999006748 0.0076064998283982 0.033339999616146 0.36599999666214 -0.0106389997527 -0.39695999026299 0.03057499974966 0.034591998904943 0.14388999342918 0.021152000874281 0.23128999769688 0.31393000483513 -0.19558000564575 -0.29172998666763 -0.092003002762794 -0.68976998329163 -0.060591001063585 -0.17501999437809 -0.23998999595642 -0.015641000121832 -0.17448000609875 -0.19483000040054 -0.084459997713566 -0.26840001344681 0.0059414999559522 0.22509999573231 -0.064980998635292 -0.027335999533534 0.044675000011921 -0.35041999816895 0.2569600045681 0.29679998755455 0.22437000274658 0.029844999313354 0.17737999558449 -0.088873997330666 0.040426000952721 0.10328999906778 0.10672999918461 -0.15837000310421 0.015957999974489 -0.21407000720501 0.10097000002861 0.046006999909878 0.020979000255466 -0.24181999266148 -0.06003699824214 0.16791999340057 -0.0097222998738289 0.62230998277664 0.1479199975729 -0.1620599925518 -0.0093502998352051 -0.21687999367714 -0.092125996947289 0.10743000358343 0.18668000400066 -0.051382001489401 -0.37033000588417 0.10152000188828 -0.25955998897552 -0.33836999535561 0.33142998814583 -0.34141001105309 -0.069081999361515 -0.07413300126791 0.39836001396179 -0.13734999299049 0.15749999880791 0.61553001403809
with -0.099533997476101 0.028201999142766 -0.23188999295235 0.094476997852325 0.1219099983573 -0.18962000310421 0.073340997099876 -0.15358999371529 0.25911000370979 1.9248000383377 -0.046101000159979 -0.21138000488281 -0.17737999558449 -0.20792999863625 -0.18928000330925 -0.31290000677109 0.13072000443935 1.4701000452042 -0.46840998530388 -0.023714000359178 -0.2119999974966 -0.052019000053406 -0.35247999429703 0.084652997553349 0.002420499920845 -0.17003999650478 0.043765000998974 0.26229000091553 0.075809001922607 -0.16082000732422 0.11185999959707 0.2859799861908 -0.054928999394178 -0.20521999895573 0.11706999689341 -0.40985000133514 0.037326999008656 -0.27044999599457 0.10130000114441 -0.087770000100136 0.25560000538826 -0.10214000195265 -0.050875999033451 -0.24888999760151 -0.09035699814558 0.40340000391006 -0.31889998912811 0.078120999038219 -0.01350300014019 0.12496999651194 -0.06419499963522 0.15621000528336 -0.38945999741554 -0.64876002073288 -0.15467999875546 0.16202999651432 -0.15855999290943 0.064896002411842 -0.41861999034882 0.025251999497414 0.017997000366449 0.11129000037909 -0.332230001688 0.10931000113487 0.0081968996673822 0.079634003341198 0.0026924000121653 0.37389001250267 0.03685799986124 0.4850899875164 -0.029570000246167 0.14924000203609 0.17737999558449 0.4602999985218 -0.2089300006628 -0.18131999671459 0.13450999557972 -0.16064999997616 -0.32071998715401 0.15555000305176 -0.033259999006987 0.11529000103474 -0.092779003083706 -0.25879999995232 -0.15643000602722 -0.40839999914169 -0.28606000542641 0.23272000253201 0.41725000739098 0.013222999870777 -0.33544999361038 -0.019993999972939 0.044900998473167 0.4125599861145 -0.033449999988079 -0.21479000151157 -0.0015942000318319 0.024377999827266 0.061076998710632 -0.30687001347542 -0.23669999837875 0.37643998861313 -0.13545000553131 -0.40297999978065 0.0026549999602139 -0.72413998842239 0.077049002051353 0.14703999459743 0.51868999004364 -0.12925000488758 -0.13598999381065 -0.1839399933815 0.27140000462532 -0.061115998774767 -0.024987999349833 -0.095636002719402 -0.0085055995732546 0.46542999148369 0.26589998602867 0.056078001856804 0.098618000745773 -0.17005999386311 0.34729000926018 0.078652001917362 -0.063332997262478 -0.1357399970293 0.064157001674175 -0.11102999746799 -0.14204999804497 -0.18763999640942 -0.3463299870491 0.25308001041412 -0.35633000731468 0.14147000014782 0.25892001390457 0.13165000081062 0.26873999834061 -0.14803999662399 0.1238199993968 -0.28143998980522 -1.021399974823 -0.08186200261116 -0.01365299988538 -0.1300999969244 -0.040972001850605 -0.033073000609875 0.01192899979651 0.032239999622107 -0.042217999696732 -0.13176000118256 -0.1708800047636 -0.070813998579979 0.16709999740124 -0.16467000544071 -0.12633000314236 0.16680000722408 -0.32232001423836 0.04967400059104 0.011607999913394 -0.31205999851227 -0.45045000314713 0.38980001211166 0.2348700016737 -0.28334999084473 0.21270999312401 -0.25442999601364 0.020114000886679 -0.055470000952482 0.25253000855446 -0.056873001158237 -0.15861999988556 -0.026802999898791 0.25964999198914 0.50471997261047 -0.086708001792431 0.14647999405861 -0.26287999749184 -0.02208299934864 0.40801998972893 -0.17960000038147 -0.065228998661041 -0.16111999750137 -0.069664001464844 -0.19957000017166 -0.25525000691414 -0.014868999831378 -0.027340000495315 0.089579001069069 -0.12304999679327 -0.039248000830412 -0.18663999438286 -0.23231999576092 -0.12283000349998 0.33509001135826 -0.28718999028206 0.31075999140739 -0.20845000445843 0.13095000386238 -0.15075999498367 0.25573000311852 -0.25371000170708 -0.25126001238823 0.0359239988029 0.0042305001989007 0.35372000932693 0.2660099864006 0.085752002894878 0.20911000669003 -0.052287001162767 0.045407999306917 -0.60017001628876 0.17655999958515 0.33702000975609 -0.49944999814034 -0.13792000710964 0.42831999063492 -0.2311400026083 -0.2054899930954 -0.024212999269366 0.4831799864769 -0.32528999447823 0.0025202999822795 -0.35464999079704 0.3987900018692 0.075473003089428 -0.068466998636723 -0.052630998194218 0.14831000566483 0.10662999749184 0.35927000641823 -0.22333000600338 0.19031000137329 0.15848000347614 0.26500999927521 0.083116002380848 -0.19741000235081 -0.22846999764442 0.26982000470161 0.20911000669003 0.28905001282692 0.13072000443935 0.31143000721931 -0.10909000039101 0.024217000231147 0.32365000247955 0.0073767001740634 -0.14046999812126 -0.55289000272751 0.017525000497699 -0.091674998402596 0.23868000507355 0.20603999495506 -0.08117800205946 0.2200700044632 -0.091632999479771 0.63292998075485 0.24777999520302 -0.29297998547554 -0.40472999215126 0.17205999791622 0.094963997602463 0.28608998656273 -0.31597998738289 0.17499999701977 0.18120999634266 0.033381998538971 -0.20758000016212 0.04535000026226 0.31448999047279 -0.27504000067711 0.3285000026226 -0.18021999299526 -0.32181999087334 0.037395998835564 -0.36000001430511 0.16197000443935 0.22744999825954 0.11206000298262 0.16041000187397 0.027424000203609 0.34799998998642 0.39855998754501 0.13256999850273 -0.029976999387145 -0.0080682998523116 0.082875996828079 0.61953002214432 0.047860000282526 0.2963300049305 0.054708000272512 -0.27364000678062 -0.0064678997732699 0.21729999780655 0.012618999928236 -0.07940199971199 0.06258399784565 0.041636001318693 -0.10301999747753 -0.039964001625776 0.26807999610901
are -0.19858999550343 -0.062817998230457 -0.36614000797272 -0.41786000132561 0.20961999893188 -0.26728001236916 0.24600000679493 0.12782999873161 -0.045844998210669 2.5253000259399 0.35196000337601 0.093547001481056 0.086571998894215 -0.11929000169039 -0.062435001134872 -0.19257000088692 -0.11777999997139 1.4465999603271 -0.59561002254486 -0.077900998294353 -0.31325000524521 -0.16534000635147 0.052629999816418 -0.17152999341488 -0.073092997074127 0.055853001773357 -0.29390999674797 -0.20245000720024 0.078066997230053 -0.079952001571655 -0.15609000623226 -0.065692000091076 -0.05953000113368 -0.024956999346614 0.10386999696493 0.25788000226021 -0.22031000256538 -0.093547999858856 -0.018459999933839 -0.097560003399849 -0.38752999901772 0.25543001294136 -0.13435000181198 0.29886001348495 0.15246999263763 0.03728200122714 -0.031605001538992 -0.3345499932766 0.089667998254299 0.031383000314236 -0.18051999807358 -0.13497999310493 -0.25510001182556 -0.17485000193119 0.069063000380993 -0.20491999387741 -0.090552002191544 -0.015461999922991 -0.27715000510216 0.18137000501156 0.15945999324322 -0.20870999991894 -0.27639999985695 0.32727000117302 -0.057257000356913 0.1798299998045 0.012767000123858 0.38424000144005 0.15904000401497 -0.01441099960357 -0.037496000528336 0.19034999608994 0.8313199877739 -0.049975998699665 0.32580998539925 -0.27538999915123 0.23838999867439 -0.16074000298977 0.31317999958992 0.39318001270294 -0.011905999854207 0.18941000103951 -0.6243399977684 -0.19619999825954 0.084431000053883 -0.31681001186371 -0.19475999474525 0.063256002962589 0.2979100048542 0.0058014001697302 -0.18599000573158 -0.050572998821735 0.2250099927187 -0.084629997611046 0.29137000441551 0.19095000624657 -0.077497996389866 -0.11785999685526 -0.084964998066425 -0.40560001134872 -0.16787000000477 0.26493999361992 -0.092399001121521 -0.063161998987198 0.33634999394417 -0.89221000671387 -0.35093998908997 -0.20510999858379 0.016163000836968 0.42651998996735 -0.23077000677586 -0.22797000408173 0.27599000930786 -0.36401000618935 -0.07778599858284 -0.084522001445293 -0.073138996958733 0.16219000518322 -0.44128999114037 0.3058699965477 -0.088138997554779 -0.013012000359595 0.075654998421669 -0.23322999477386 0.44424998760223 -0.094221003353596 0.55523002147675 -0.15091000497341 -0.10426999628544 -0.19482000172138 0.54778999090195 0.085891999304295 -0.24776999652386 -0.062490001320839 0.32471999526024 0.29960000514984 -0.24347999691963 -0.41018998622894 0.057845000177622 0.34885001182556 -0.71639001369476 0.23030999302864 0.19441999495029 -0.27706000208855 0.20995999872684 -0.12619000673294 0.10678999871016 0.021385999396443 0.35036998987198 -0.1311399936676 0.17483000457287 -0.26906999945641 0.0028733999934047 0.010406999848783 -0.32918000221252 0.19958999752998 -0.33750000596046 0.071718998253345 -0.26644000411034 -0.41964998841286 0.64129000902176 -0.068470001220703 -0.19266000390053 0.038926001638174 0.093084000051022 -0.31762000918388 0.25233000516891 -0.39757001399994 0.13257999718189 0.071091003715992 0.22379000484943 0.15001000463963 0.42410999536514 0.19574999809265 -0.2175900042057 0.026757000014186 0.13422000408173 0.31466999650002 0.34345000982285 0.010293000377715 0.11823999881744 0.45155000686646 -0.36970001459122 -0.13293999433517 -0.35528001189232 -0.17031000554562 -0.019912000745535 -0.10420999675989 0.26895999908447 0.41699999570847 0.38751000165939 0.094274997711182 -0.083526998758316 -0.23073999583721 -0.22563999891281 -0.079475000500679 0.11575999855995 0.25639000535011 0.074124000966549 0.3811399936676 0.17027999460697 -0.32039999961853 0.4811899960041 -0.0034888000227511 0.37514001131058 -0.32734999060631 -0.22277000546455 0.27504000067711 0.031610999256372 -0.20505000650883 0.20773999392986 0.21390999853611 0.041448999196291 -0.33708000183105 -0.16771000623703 0.1479600071907 0.12523999810219 0.15516999363899 -0.45609998703003 -0.18142999708652 -0.17102999985218 0.22032000124454 0.17128999531269 -0.013798999600112 0.2858000099659 0.0077814999967813 -0.26554998755455 0.0478890016675 -0.35453000664711 -0.20061999559402 -0.28760999441147 -0.15749000012875 0.23977999389172 0.14429999887943 0.034295998513699 -0.067144997417927 -0.0084247002378106 -0.72342002391815 -0.28055998682976 0.28881001472473 -0.10604000091553 0.32817998528481 -0.34097999334335 0.046491999179125 -0.26372998952866 -0.0038640000857413 -0.62803000211716 -0.25992000102997 -0.21455000340939 0.32561999559402 -0.15829999744892 -0.026257999241352 -0.14900000393391 0.038495998829603 -0.11264999955893 0.21798999607563 0.21322000026703 0.2123299986124 -0.14936000108719 0.32087001204491 0.47036001086235 -0.03053200058639 -0.32337999343872 0.33518999814987 -0.10903999954462 0.49285000562668 0.2666600048542 0.30610999464989 0.76090997457504 0.13530999422073 -0.50231999158859 -0.23408000171185 -0.39776998758316 -0.15196000039577 -0.046528000384569 -0.21585999429226 0.019040999934077 0.49533000588417 0.18253999948502 0.21709999442101 0.4936900138855 0.31384000182152 -0.23158000409603 0.055319998413324 0.069753997027874 0.1000500023365 -0.087884001433849 -0.13244000077248 0.27741000056267 0.16754999756813 -0.55506002902985 -0.047766000032425 -0.17412999272346 -0.16869999468327 0.089731998741627 0.52814000844955 -0.11219000071287 -0.58451002836227 0.27878999710083 -0.26205000281334
at -0.36768999695778 0.59820997714996 0.1322900056839 0.23506000638008 -0.046757001429796 0.36307001113892 0.14099000394344 -0.10092999786139 -0.15876999497414 2.5371000766754 0.16425999999046 -0.12201000005007 0.21931000053883 -0.59078997373581 0.11269000172615 -0.061432998627424 -0.41993999481201 1.4898999929428 -0.32111999392509 -0.085469998419285 -0.041710998862982 -0.054623998701572 -0.067565999925137 0.16857999563217 0.29859000444412 0.6176900267601 -0.29284998774529 -0.27140000462532 0.29829999804497 -0.0080827996134758 0.45881998538971 0.074601002037525 0.16836999356747 0.85413002967834 -0.4998300075531 -0.12392999976873 -0.28600001335144 0.87041997909546 0.18725000321865 0.53558999300003 -0.3192999958992 0.04169899970293 -0.44677001237869 0.20252999663353 0.54032999277115 0.24752999842167 -0.37714999914169 -0.46026998758316 -0.1724199950695 0.2533900141716 0.41273999214172 0.5584300160408 -0.1628800034523 0.15782999992371 -0.15162999927998 0.096856996417046 0.46101999282837 -0.34735000133514 -0.245609998703 -0.013194999657571 0.14733999967575 -0.12283000349998 -0.1100599989295 0.12155000120401 -0.36221998929977 -0.21340000629425 0.044929999858141 -0.013221000321209 -0.22635999321938 0.2799299955368 0.0012471999507397 -0.50401002168655 -0.073357999324799 0.15364000201225 0.073375999927521 0.47426998615265 0.51481997966766 -0.38231000304222 -0.85773998498917 -0.27755001187325 0.32111001014709 0.19491000473499 -0.044248998165131 -0.12622000277042 0.41194000840187 -0.15177999436855 0.082253001630306 -0.010827000252903 -0.10485000163317 0.021733999252319 -0.4370099902153 0.31044998764992 0.10882999747992 -0.45315998792648 -0.12768000364304 -0.27759999036789 -0.11139000207186 -0.14343999326229 0.27744001150131 -0.090819001197815 0.044911000877619 -0.14890000224113 -0.41633999347687 -0.17551000416279 0.022135000675917 0.52000999450684 0.47982999682426 -0.22133000195026 -0.28093999624252 0.13091999292374 0.15546999871731 -0.63832998275757 0.20612999796867 0.5064799785614 0.017163999378681 -0.58938002586365 0.04194800183177 -0.27061000466347 0.055236000567675 -0.33485001325607 0.16135999560356 0.11800999939442 -0.40700998902321 -0.64495998620987 0.089916996657848 0.030719999223948 -0.3323999941349 -0.17111000418663 -0.24695000052452 0.37055000662804 -0.094538003206253 -0.087252996861935 -0.38874000310898 0.048252999782562 -0.40946999192238 -0.34081000089645 -0.037611000239849 0.65441000461578 0.068479999899864 -0.10164999961853 -0.40389001369476 0.10813000053167 -0.22223000228405 -0.19690999388695 0.28832000494003 0.18377999961376 0.014836000278592 -0.26287001371384 -0.096261002123356 0.10219000279903 -0.17305000126362 -0.49913999438286 -0.38240000605583 0.21818000078201 -0.36860001087189 0.16525000333786 0.047200001776218 -0.10292000323534 -0.041792999953032 -0.18099999427795 -0.059390000998974 -0.16044999659061 0.43955001235008 -0.26214000582695 0.28115999698639 0.09128899872303 0.10214000195265 0.25554001331329 -0.19604000449181 -0.13484999537468 0.38587000966072 0.011260000057518 -0.14089000225067 -0.019076999276876 -0.020912000909448 0.26910001039505 -0.19602000713348 0.28619000315666 -0.036270000040531 -0.16570000350475 -0.18118000030518 -0.24443000555038 0.52283000946045 0.11715000122786 -0.003008299972862 0.43626001477242 0.34314998984337 0.066219002008438 0.94045001268387 0.20832000672817 -0.49127000570297 0.32640999555588 -0.45039001107216 1.8564000129118e-05 -0.41277998685837 0.39304000139236 0.041149999946356 0.59372001886368 -0.48522999882698 0.13174000382423 0.55618000030518 0.25747999548912 -0.074822001159191 0.2080599963665 0.36526998877525 -0.34542998671532 -0.19501000642776 0.10605999827385 0.18489000201225 -0.22234000265598 0.057229999452829 -0.13110999763012 -0.1734099984169 -0.14089000225067 0.049382001161575 -0.082897000014782 -0.16355000436306 0.29960000514984 0.14933000504971 0.39375001192093 0.0024238999467343 -0.21347999572754 -0.39642998576164 -0.36237999796867 0.034256998449564 0.27042999863625 0.10181000083685 -0.025312999263406 0.54132997989655 0.13530999422073 -0.025420999154449 0.46123000979424 0.93226999044418 -0.089559003710747 -0.57502001523972 -0.15074999630451 -0.74333000183105 -0.043591998517513 -0.10689000040293 -0.41813001036644 0.22440999746323 0.18296000361443 -0.09052400290966 0.17857000231743 -0.15198999643326 -0.34918999671936 -0.43930000066757 0.36164000630379 -0.10558000206947 0.45816001296043 -0.028465999290347 -0.088555999100208 -0.23874999582767 -0.089064002037048 0.51100999116898 0.5561900138855 0.18272000551224 0.2814100086689 -0.3125 -0.63814997673035 0.47543999552727 0.5273699760437 0.15875999629498 0.43863001465797 -0.091851003468037 -0.30287998914719 0.095918998122215 0.11124999821186 -0.13932000100613 -0.024901999160647 -0.14600999653339 0.062454998493195 -0.12561999261379 -0.11868999898434 -0.28558000922203 -0.13388000428677 0.64000999927521 -0.093231998383999 -0.30564999580383 0.56926000118256 0.16738000512123 0.1338299959898 -0.069476000964642 -0.18341000378132 0.14278000593185 0.14948000013828 0.27693000435829 -0.017559999600053 0.31911000609398 0.58483999967575 -0.30746999382973 -0.037953000515699 -0.11377000063658 -0.0152000002563 -0.3377799987793 0.2882199883461 -0.15940999984741 0.27228000760078 -0.048367001116276 0.58643001317978
as -0.10648000240326 -0.016295000910759 -0.22754999995232 -0.18933999538422 0.14167000353336 0.27404001355171 -0.028968999162316 -0.3154000043869 -0.40320000052452 2.7084999084473 0.15320999920368 0.15344999730587 -0.085798002779484 -0.1739500015974 -0.0059932000003755 -0.044821001589298 -0.027701999992132 1.0713000297546 -0.31542000174522 -0.25108999013901 -0.31534001231194 0.014132999815047 -0.38718000054359 0.13517999649048 -0.067773997783661 0.3439199924469 -0.20209999382496 0.0017083999700844 0.053716000169516 -0.066964000463486 0.12081000208855 0.21120999753475 0.036277998238802 0.10395000129938 0.1331200003624 -0.29282000660896 0.1209399998188 0.096785001456738 -0.13612000644207 -0.14153000712395 -0.0035055000334978 0.23564000427723 0.044989001005888 -0.0029994000215083 -0.060646999627352 -0.15817999839783 -0.30979999899864 -0.25685000419617 -0.077776998281479 0.10373999923468 -0.032997999340296 0.16709999740124 -0.17314000427723 0.11450999975204 0.06682500243187 -0.00076626002555713 0.021957999095321 -0.028378000482917 -0.14264999330044 -0.24111999571323 0.11366999894381 -0.10255999863148 0.023031000047922 -0.027696000412107 -0.069262996315956 -0.15692999958992 -0.026228999719024 -0.1411699950695 -0.050207998603582 0.072066999971867 0.13692000508308 0.16497999429703 -0.089294001460075 0.082570001482964 -0.12619000673294 0.29701000452042 0.17990000545979 -0.12884999811649 0.15327000617981 0.20219999551773 -0.040821999311447 0.12185999751091 -0.26205998659134 -0.0018238000338897 0.32863000035286 -0.3779099881649 -0.17301000654697 -0.085302002727985 -0.12739999592304 -0.12985000014305 0.099123999476433 0.12756000459194 0.29429998993874 0.17452000081539 0.26083999872208 -0.40347999334335 0.18599000573158 -0.25534000992775 0.035388998687267 -0.37782999873161 -0.11813999712467 0.071124002337456 -0.29684001207352 -0.21379999816418 -0.13154999911785 -0.86324000358582 -0.10317999869585 -0.038373999297619 0.13516999781132 -0.041432999074459 -0.16215999424458 -0.11313000321388 0.087610997259617 -0.11195000261068 0.064373001456261 -0.21678000688553 -0.061491999775171 0.067132003605366 -0.029095999896526 0.0068107000552118 -0.045581001788378 -0.015130000188947 -0.20083999633789 -0.012068999931216 -0.093235999345779 0.20572000741959 0.0445859991014 -0.020840000361204 -0.096289999783039 0.07889299839735 0.023459000512958 -0.06861999630928 0.059130001813173 0.21673999726772 -0.078314997255802 0.21363000571728 0.14314000308514 -0.11269000172615 0.21795000135899 0.13472999632359 -0.96632999181747 0.089383997023106 0.54565000534058 -0.11908999830484 0.026467999443412 -0.015631999820471 0.43334999680519 -0.063477002084255 0.17601999640465 -0.11200000345707 -0.050677999854088 0.09740000218153 0.10835000127554 -0.022863000631332 -0.079370997846127 -0.186130002141 -0.095578998327255 0.096451997756958 0.16985000669956 -0.31720000505447 -0.10339000076056 -0.13774999976158 0.13052999973297 -0.3795500099659 -0.091040000319481 -0.47088998556137 -0.021284999325871 0.13460999727249 0.18897999823093 -0.1317500025034 0.072036996483803 0.10227999836206 0.052889999002218 0.10862000286579 0.0083392998203635 0.0064496998675168 0.062592998147011 0.01061400026083 -0.49213001132011 -0.081616997718811 -0.016147000715137 0.019621999934316 -0.097198002040386 -0.28358000516891 -0.30155000090599 0.011692999862134 -0.15195000171661 0.16121000051498 0.25091999769211 -0.014530000276864 -0.071483001112938 0.068883001804352 -0.021714000031352 0.11603999882936 -0.1564600020647 -0.068976998329163 -0.21629999577999 0.019400000572205 -0.087162002921104 0.23781000077724 0.092504002153873 -0.048852998763323 -0.18377999961376 0.14822000265121 0.20719000697136 0.14652000367641 0.18217000365257 -0.12637999653816 -0.2050399929285 0.20200000703335 -0.16741999983788 -0.074658997356892 0.070591002702713 -0.2814100086689 -0.09629300236702 0.30171999335289 0.19460000097752 0.36950999498367 -0.17859999835491 -0.23215000331402 0.04339500144124 0.4242300093174 0.0042782002128661 0.15524999797344 0.045669000595808 0.29934000968933 -0.035877000540495 0.2788400053978 -0.07091099768877 0.14239999651909 -0.33601000905037 -0.036871999502182 0.077822998166084 0.0017128000035882 -0.14293999969959 -0.35337999463081 0.086800001561642 -0.14034999907017 -0.012714000418782 0.075595997273922 0.21088999509811 0.18058000504971 -0.04314199835062 -0.0098158000037074 0.4493499994278 -0.12382999807596 -0.16640999913216 -0.22360000014305 0.15068000555038 -0.11659000068903 0.22787000238895 0.15581999719143 0.017689999192953 -0.019982000812888 0.086622998118401 0.1854699999094 0.28374999761581 0.059657998383045 0.093333996832371 -0.07056900113821 0.3962100148201 0.41797000169754 -0.011218000203371 0.3100999891758 0.020182000473142 0.0067417002283037 -0.035264000296593 -0.39675000309944 0.58749002218246 -0.16479000449181 0.30790999531746 -0.30142998695374 -0.26625999808311 0.02292500063777 -0.1696300059557 0.12998999655247 0.0021842999849468 0.19784000515938 -0.10350000113249 0.33118999004364 0.28959000110626 0.20308999717236 0.22411000728607 -0.16619999706745 -0.044592998921871 -0.26372000575066 0.094942003488541 -0.32548001408577 0.43998000025749 0.13718999922276 -0.15921999514103 0.18396000564098 0.055808000266552 -0.12251000106335 -0.13089999556541 0.16069999337196 -0.061875998973846 -0.31343001127243 0.087424002587795 -0.16609999537468
